#include "dl_layers.h"
#include <stdio.h>


char weights_1st_layer[22950] = {
25,
93,
43,
96,
102,
83,
-56,
-81,
62,
-59,
-71,
-89,
117,
48,
-61,
-2,
60,
86,
-13,
10,
1,
106,
72,
80,
87,
29,
11,
-41,
51,
-26,
-51,
76,
66,
119,
44,
40,
-54,
-12,
87,
-119,
56,
15,
-81,
-82,
-64,
112,
43,
123,
70,
29,
-123,
70,
7,
76,
-106,
93,
104,
32,
-75,
28,
5,
1,
-24,
-57,
119,
19,
111,
-63,
-121,
-58,
72,
-65,
84,
118,
-20,
19,
102,
22,
14,
-84,
50,
-110,
113,
56,
94,
7,
22,
-58,
-89,
74,
-31,
44,
74,
72,
114,
-63,
91,
-31,
-127,
97,
38,
73,
31,
122,
63,
-117,
13,
-90,
-96,
27,
-47,
81,
44,
66,
10,
-118,
-55,
-96,
-48,
110,
-23,
48,
26,
50,
120,
-115,
114,
83,
-19,
114,
-76,
19,
59,
83,
13,
122,
-35,
-102,
-96,
-3,
52,
111,
77,
-31,
-79,
-41,
105,
-7,
117,
-71,
-24,
93,
-23,
1,
-113,
96,
13,
-127,
-77,
122,
-13,
101,
-115,
45,
56,
25,
-89,
21,
50,
-58,
17,
102,
53,
-34,
70,
101,
-75,
47,
94,
41,
-24,
69,
7,
80,
-58,
-107,
-80,
-45,
21,
-30,
76,
-120,
-57,
88,
-76,
-1,
112,
-37,
-108,
-94,
-96,
36,
-120,
-44,
1,
77,
-70,
53,
124,
23,
94,
-28,
-36,
-27,
51,
-95,
-7,
98,
-13,
-114,
67,
62,
20,
9,
22,
-56,
-120,
6,
34,
26,
40,
-63,
61,
-81,
21,
-65,
124,
-50,
-13,
-8,
100,
-47,
91,
63,
-75,
-114,
95,
-82,
111,
82,
58,
-78,
16,
78,
58,
38,
-106,
-62,
-84,
-73,
91,
-45,
-9,
-103,
2,
11,
86,
125,
88,
-55,
-11,
-68,
-102,
79,
122,
77,
92,
-38,
-6,
-53,
-84,
52,
-4,
-69,
2,
53,
96,
-105,
118,
12,
-51,
82,
94,
-61,
-22,
-32,
-50,
-64,
92,
37,
-120,
-47,
97,
-95,
-96,
-37,
-18,
123,
52,
-25,
-58,
-33,
-101,
-63,
26,
-100,
118,
121,
-78,
108,
5,
125,
-66,
99,
64,
39,
-61,
13,
102,
-96,
-78,
110,
111,
18,
14,
-112,
109,
-5,
10,
-95,
98,
-48,
0,
-4,
16,
25,
24,
6,
-110,
73,
-13,
23,
-57,
48,
-6,
6,
87,
-68,
-109,
61,
90,
67,
-85,
-54,
-42,
-71,
-39,
-61,
51,
-30,
98,
-107,
49,
-30,
17,
-62,
-6,
-87,
71,
12,
-15,
57,
34,
-73,
105,
27,
60,
64,
-42,
78,
124,
-79,
18,
39,
-6,
-25,
95,
-46,
-87,
18,
-77,
-117,
39,
100,
-19,
-72,
37,
-26,
95,
-20,
-15,
-48,
37,
-109,
7,
14,
-83,
-61,
-50,
3,
17,
73,
-77,
34,
-16,
44,
-119,
-49,
-3,
48,
-31,
47,
58,
-120,
-109,
38,
62,
55,
-115,
29,
35,
-3,
-20,
-56,
-112,
-14,
85,
-68,
53,
34,
62,
69,
-21,
112,
102,
91,
-100,
-18,
41,
-104,
-98,
-118,
-57,
87,
16,
-39,
-2,
-50,
16,
10,
-22,
-77,
6,
-42,
121,
21,
71,
78,
-47,
123,
111,
-113,
64,
-38,
-1,
-90,
52,
-102,
19,
-34,
-78,
-80,
-25,
119,
-120,
119,
79,
-123,
68,
-33,
-114,
46,
-111,
19,
-124,
-118,
40,
74,
-41,
120,
-58,
-58,
6,
5,
32,
-123,
43,
83,
30,
61,
-79,
79,
109,
-104,
70,
-12,
14,
21,
-8,
81,
-12,
5,
-1,
4,
23,
-126,
14,
-65,
-52,
100,
54,
17,
42,
-67,
-106,
-54,
64,
-64,
28,
-34,
125,
77,
44,
-22,
-28,
113,
93,
113,
-121,
-43,
-62,
-6,
-39,
65,
125,
111,
66,
-117,
46,
13,
-17,
-28,
-98,
-103,
-96,
51,
97,
96,
114,
-3,
61,
-17,
73,
-22,
88,
-83,
-37,
-75,
29,
-31,
-119,
95,
-38,
-31,
-96,
87,
80,
-31,
97,
125,
110,
79,
96,
11,
103,
-127,
-66,
-56,
-32,
48,
69,
-99,
-97,
-114,
-122,
-9,
-69,
96,
43,
-41,
64,
-76,
53,
-101,
-108,
84,
113,
-29,
-74,
-46,
-32,
-92,
-94,
-63,
46,
8,
-63,
-20,
80,
-96,
-100,
-107,
-68,
-70,
-94,
65,
-80,
91,
33,
-37,
-77,
-31,
14,
103,
-5,
-95,
60,
107,
4,
-15,
-66,
99,
-108,
-33,
-92,
-63,
102,
99,
44,
-74,
-125,
71,
-54,
62,
1,
107,
-1,
48,
70,
31,
10,
-8,
127,
-104,
-32,
122,
56,
27,
101,
-68,
11,
34,
-97,
30,
-127,
66,
94,
-25,
37,
11,
-100,
40,
81,
-26,
101,
-46,
80,
-28,
2,
22,
2,
-116,
14,
1,
35,
-19,
122,
-37,
7,
-32,
22,
-110,
-126,
-76,
-81,
-125,
117,
-115,
104,
27,
-105,
-124,
66,
104,
104,
-89,
57,
56,
-118,
-69,
78,
11,
70,
-36,
11,
-23,
72,
6,
-61,
-49,
-27,
88,
95,
-26,
-116,
-114,
103,
1,
-102,
79,
-100,
48,
-45,
-35,
24,
-69,
3,
80,
-13,
12,
-116,
-63,
-105,
81,
-100,
33,
57,
99,
38,
123,
49,
-117,
-45,
16,
112,
93,
29,
87,
-34,
-74,
-89,
120,
101,
-7,
-43,
124,
-77,
-41,
77,
-91,
98,
-40,
-27,
-8,
-87,
127,
25,
-31,
-30,
62,
-36,
-109,
73,
-82,
-94,
57,
-117,
-66,
-112,
-23,
-12,
-74,
-31,
88,
-82,
-74,
85,
96,
12,
-94,
-123,
110,
-7,
105,
-26,
-95,
104,
-2,
1,
-53,
-67,
-36,
92,
5,
-119,
126,
61,
-109,
59,
76,
122,
-81,
2,
-36,
7,
47,
-111,
-36,
-113,
28,
124,
-108,
-118,
-11,
124,
111,
-107,
-28,
-19,
21,
-82,
-87,
-16,
-117,
45,
-8,
8,
-22,
-118,
-61,
54,
-123,
113,
-72,
-32,
-8,
-26,
111,
-45,
-11,
11,
-49,
-120,
21,
67,
3,
4,
87,
102,
-16,
107,
-107,
25,
90,
30,
69,
-46,
-90,
47,
-37,
103,
-27,
-33,
88,
-100,
-66,
-48,
1,
-83,
34,
-11,
-72,
-16,
-4,
-52,
-77,
126,
-49,
9,
-27,
-66,
115,
-7,
86,
77,
22,
28,
30,
-69,
74,
-7,
-94,
-81,
87,
-6,
-54,
21,
73,
-54,
-63,
107,
63,
119,
-37,
58,
-61,
-114,
-71,
-111,
-106,
29,
-49,
9,
21,
36,
-42,
-85,
-64,
-12,
-27,
-118,
108,
6,
55,
-61,
127,
0,
87,
-55,
74,
24,
51,
-119,
15,
13,
-62,
-46,
-102,
-6,
-30,
47,
-105,
-80,
-72,
43,
84,
-115,
-43,
19,
0,
57,
-99,
-20,
63,
83,
47,
-66,
-44,
-122,
-122,
29,
-99,
-72,
37,
44,
69,
102,
-3,
94,
96,
-34,
-115,
118,
14,
-60,
-94,
-30,
-47,
117,
116,
80,
-81,
-111,
60,
109,
-28,
-21,
42,
55,
111,
-80,
83,
-115,
-25,
119,
-72,
-84,
-35,
52,
10,
-67,
-110,
22,
51,
31,
-38,
-44,
0,
42,
-55,
-11,
121,
-9,
-123,
53,
99,
-24,
-96,
14,
30,
15,
61,
-15,
27,
35,
103,
82,
79,
-59,
-122,
88,
1,
-105,
109,
-76,
-74,
-57,
7,
53,
112,
80,
41,
106,
70,
46,
31,
42,
21,
-65,
55,
51,
77,
115,
-92,
103,
22,
11,
-71,
100,
79,
-66,
60,
-48,
83,
42,
4,
-119,
112,
10,
-66,
97,
-38,
102,
-53,
32,
-108,
-23,
-54,
41,
39,
-127,
-36,
115,
-13,
126,
-38,
-119,
9,
18,
109,
-40,
79,
41,
-88,
35,
82,
43,
-85,
67,
52,
-24,
-92,
-113,
-49,
109,
-82,
-30,
-42,
-9,
10,
-3,
118,
101,
-16,
-23,
-28,
74,
-15,
108,
91,
93,
68,
-85,
7,
107,
77,
88,
-106,
-9,
-101,
73,
95,
-66,
-41,
45,
-85,
4,
14,
-127,
122,
-103,
-3,
-16,
-3,
-20,
88,
96,
53,
73,
-51,
17,
38,
16,
59,
44,
-5,
-120,
5,
16,
-2,
31,
88,
92,
-35,
-80,
9,
-121,
-77,
23,
-121,
-82,
-81,
3,
-99,
43,
111,
117,
-116,
36,
62,
87,
52,
99,
-25,
-17,
16,
-31,
117,
20,
-16,
-12,
50,
-56,
79,
-113,
-9,
88,
-106,
42,
-17,
27,
-41,
29,
30,
-13,
71,
-115,
103,
82,
-80,
-91,
-87,
100,
8,
15,
82,
-104,
111,
72,
-85,
-33,
59,
92,
-89,
10,
-21,
29,
-30,
127,
70,
-48,
-102,
28,
-20,
55,
15,
-76,
67,
117,
5,
115,
-101,
46,
-41,
-94,
-67,
-87,
56,
44,
-16,
98,
10,
-85,
-66,
48,
-75,
-88,
77,
-106,
-89,
-109,
-26,
-63,
47,
81,
119,
61,
4,
-69,
50,
-118,
45,
-52,
55,
3,
-19,
-13,
43,
-91,
30,
27,
6,
-87,
69,
68,
88,
-7,
107,
-91,
15,
18,
-72,
-12,
82,
-26,
68,
-55,
-93,
-55,
-125,
84,
-46,
-81,
32,
8,
49,
12,
122,
-35,
49,
25,
-9,
54,
-63,
-68,
-6,
24,
-75,
101,
61,
67,
118,
116,
54,
-56,
-38,
-6,
-112,
123,
66,
-109,
79,
19,
-63,
110,
-101,
-14,
-5,
21,
-50,
43,
-82,
68,
-31,
109,
-1,
-37,
5,
51,
63,
-62,
-10,
53,
53,
-84,
124,
14,
-90,
-116,
9,
103,
29,
88,
-5,
-34,
70,
-107,
79,
64,
41,
-99,
-21,
-42,
96,
-52,
-61,
-33,
-90,
72,
-109,
100,
9,
-120,
25,
62,
51,
-107,
-52,
88,
31,
85,
63,
-67,
45,
57,
-102,
114,
-50,
104,
51,
118,
4,
29,
-51,
-28,
-24,
-113,
-62,
13,
-42,
83,
-15,
-33,
91,
9,
-99,
-114,
-99,
-24,
101,
60,
60,
-92,
-8,
104,
-35,
17,
91,
42,
-7,
-114,
32,
124,
-86,
-20,
95,
18,
-5,
-95,
-97,
-48,
116,
-112,
46,
-49,
-104,
74,
-36,
-75,
50,
64,
112,
-18,
99,
103,
-41,
-64,
-8,
49,
105,
-16,
62,
-118,
107,
103,
-11,
74,
-7,
-17,
-22,
-104,
-65,
93,
-89,
108,
43,
-66,
55,
-121,
113,
104,
70,
97,
-42,
-86,
72,
-84,
-23,
63,
92,
82,
-81,
26,
91,
-102,
-126,
79,
-29,
121,
62,
77,
-111,
124,
42,
54,
-24,
-42,
-12,
30,
91,
-27,
6,
-94,
-57,
92,
-53,
14,
7,
-77,
77,
-28,
4,
123,
-3,
94,
21,
-2,
-82,
119,
-8,
-21,
68,
-120,
102,
110,
62,
-50,
67,
-78,
108,
30,
22,
113,
-65,
-36,
77,
-119,
-22,
-43,
-68,
-73,
-72,
-65,
49,
52,
-98,
-58,
-77,
-53,
61,
-86,
53,
1,
-79,
27,
110,
-18,
-24,
49,
31,
-44,
79,
53,
-58,
-114,
16,
18,
-105,
121,
-26,
81,
47,
29,
15,
96,
81,
44,
37,
-124,
-10,
-30,
-83,
42,
-29,
92,
-59,
-47,
-53,
-83,
2,
-23,
127,
-47,
29,
68,
93,
-82,
86,
-13,
38,
-68,
67,
85,
-39,
-45,
53,
-86,
126,
-38,
44,
-11,
-68,
-40,
-97,
30,
51,
99,
110,
125,
15,
-16,
102,
14,
-64,
3,
-45,
-98,
-80,
-87,
-112,
-42,
99,
83,
-85,
-68,
-90,
95,
100,
35,
56,
-112,
23,
115,
102,
-74,
17,
26,
24,
127,
-105,
-89,
110,
124,
52,
46,
127,
-121,
75,
46,
46,
-38,
-124,
18,
-83,
-82,
-51,
81,
12,
49,
-11,
68,
64,
11,
55,
39,
64,
72,
-63,
87,
-57,
-41,
125,
-75,
83,
-78,
98,
-46,
-72,
-83,
127,
-26,
7,
-124,
119,
-77,
-79,
-60,
-123,
-67,
116,
120,
-127,
53,
3,
55,
91,
-60,
126,
27,
-101,
68,
-15,
24,
-7,
-60,
73,
90,
-107,
0,
-120,
-107,
101,
-114,
-104,
92,
-64,
71,
32,
67,
-124,
20,
59,
-124,
72,
-65,
-69,
35,
-126,
56,
61,
27,
-3,
-81,
-77,
117,
113,
-5,
79,
-121,
123,
-42,
-101,
96,
-29,
49,
-67,
-93,
-8,
92,
101,
-4,
111,
-95,
126,
56,
-33,
56,
90,
95,
-15,
24,
-6,
109,
-58,
-83,
-30,
-73,
39,
-79,
-67,
-94,
7,
86,
-125,
-23,
7,
62,
-117,
-1,
26,
112,
-6,
-119,
16,
-8,
64,
110,
48,
27,
77,
-95,
50,
70,
13,
119,
114,
110,
45,
-102,
-97,
-22,
-69,
-91,
-64,
60,
-114,
-57,
-6,
-104,
69,
19,
7,
-65,
28,
-105,
-74,
91,
-123,
101,
117,
-47,
5,
39,
23,
-110,
-98,
9,
127,
75,
34,
30,
52,
-35,
-62,
115,
-103,
-49,
-70,
-109,
-25,
-2,
-91,
109,
-68,
64,
-123,
-14,
-100,
8,
86,
-111,
-39,
-36,
-72,
111,
108,
84,
119,
108,
-97,
-102,
-118,
82,
-10,
74,
70,
-114,
-102,
-1,
-96,
127,
125,
-59,
108,
56,
4,
-16,
41,
31,
120,
0,
-80,
80,
-37,
-25,
63,
-57,
-69,
54,
50,
-38,
79,
59,
-84,
68,
6,
-15,
82,
-97,
112,
113,
-98,
-19,
53,
9,
-91,
-70,
121,
78,
-40,
-15,
77,
7,
-63,
-88,
109,
127,
109,
40,
-75,
32,
-126,
4,
90,
44,
-56,
95,
-98,
-102,
125,
13,
-116,
26,
-7,
64,
-92,
-99,
-7,
-99,
-22,
81,
13,
-73,
-40,
-51,
93,
69,
-52,
75,
-19,
127,
-21,
109,
3,
-59,
25,
75,
36,
-74,
100,
33,
66,
-17,
-68,
-69,
47,
94,
-40,
-88,
122,
-63,
120,
-121,
-8,
-47,
-45,
-43,
21,
-98,
31,
-126,
-99,
-118,
110,
-96,
78,
-121,
106,
-14,
-67,
-50,
18,
-2,
-67,
-51,
57,
107,
-85,
16,
-109,
36,
80,
-116,
42,
71,
91,
-4,
28,
-16,
25,
-69,
112,
-74,
68,
94,
-43,
-110,
100,
62,
3,
32,
11,
20,
-97,
71,
97,
-41,
50,
11,
-26,
-59,
-80,
53,
-48,
-39,
-3,
42,
85,
24,
25,
-18,
-46,
9,
-93,
-106,
102,
118,
-89,
-54,
-76,
-87,
106,
63,
-67,
8,
-122,
-98,
94,
-72,
-88,
67,
-4,
-41,
-8,
-53,
48,
-12,
-12,
-123,
-116,
-115,
113,
-34,
-107,
-107,
114,
122,
10,
25,
-60,
62,
65,
45,
124,
125,
-75,
-126,
26,
18,
-71,
-62,
-43,
-76,
24,
77,
-2,
71,
64,
113,
-53,
-52,
-3,
-67,
-87,
17,
80,
-101,
11,
-38,
51,
-49,
23,
116,
123,
19,
-15,
48,
-107,
11,
-62,
76,
76,
23,
-127,
99,
99,
125,
-85,
35,
-17,
-11,
-18,
107,
49,
22,
-3,
-127,
49,
7,
-37,
99,
85,
113,
-41,
-47,
-123,
72,
-127,
-103,
82,
-62,
100,
30,
-40,
100,
1,
-69,
-30,
-85,
-34,
80,
32,
75,
59,
80,
97,
55,
81,
18,
-65,
-84,
116,
19,
28,
-52,
99,
32,
-108,
-29,
-72,
-27,
37,
-99,
-125,
124,
0,
-125,
55,
97,
-82,
20,
49,
-51,
94,
108,
-99,
63,
35,
109,
80,
-31,
24,
69,
116,
52,
-111,
-41,
83,
35,
58,
-116,
-120,
94,
-88,
-118,
-38,
39,
11,
-111,
-119,
-72,
-92,
57,
4,
2,
37,
33,
-63,
72,
-114,
-110,
-87,
-90,
86,
28,
-39,
-26,
-13,
-84,
-119,
44,
-73,
-112,
10,
93,
24,
99,
-123,
-93,
-12,
-115,
90,
-105,
-59,
-34,
24,
-22,
-2,
89,
-78,
-116,
-22,
89,
48,
63,
-10,
-119,
-91,
-24,
-76,
-83,
-108,
106,
59,
29,
-57,
-45,
127,
74,
116,
114,
-42,
78,
-118,
27,
44,
33,
-123,
41,
121,
53,
52,
98,
14,
-28,
33,
3,
107,
69,
106,
31,
-15,
-3,
9,
-84,
-102,
-49,
125,
25,
-102,
-14,
11,
-17,
63,
-108,
9,
106,
-75,
-115,
20,
45,
65,
71,
16,
79,
43,
-79,
81,
22,
-10,
60,
-75,
102,
-71,
-67,
18,
82,
12,
-113,
106,
-91,
127,
116,
-109,
63,
-119,
28,
41,
60,
-88,
60,
-23,
105,
4,
120,
-72,
-81,
-86,
-119,
68,
31,
-60,
121,
-123,
124,
53,
-106,
78,
64,
-91,
-72,
100,
-92,
-84,
119,
-30,
51,
-109,
-116,
-17,
-70,
-57,
88,
34,
74,
80,
-39,
120,
-7,
-30,
-67,
-104,
37,
53,
28,
33,
-22,
49,
110,
-85,
85,
-90,
14,
-7,
-46,
5,
90,
4,
-105,
-27,
115,
-47,
44,
75,
-14,
-10,
-101,
75,
110,
20,
-83,
-85,
-85,
-47,
95,
-58,
-14,
72,
119,
95,
114,
-52,
-122,
-127,
68,
86,
-123,
-97,
-38,
-100,
3,
76,
107,
46,
23,
-35,
36,
-78,
39,
18,
-59,
83,
-68,
-17,
36,
26,
-75,
21,
-30,
-84,
-12,
84,
-9,
120,
84,
59,
-50,
88,
89,
-88,
115,
91,
115,
-34,
-118,
-117,
59,
45,
-68,
-30,
62,
0,
53,
121,
-18,
88,
-109,
34,
-19,
-12,
-51,
-32,
-56,
-60,
88,
27,
126,
-90,
-12,
-41,
-51,
102,
49,
64,
-59,
58,
74,
127,
102,
5,
96,
36,
4,
-107,
-99,
113,
108,
-81,
-108,
88,
-93,
95,
56,
105,
-93,
16,
5,
32,
53,
120,
-10,
2,
94,
39,
-62,
34,
-31,
11,
-95,
71,
-112,
-126,
-21,
19,
21,
-120,
-124,
-126,
53,
-105,
-39,
87,
-10,
-111,
65,
-104,
32,
-58,
56,
85,
61,
45,
86,
-101,
-44,
23,
61,
-75,
-94,
93,
123,
-79,
-34,
-26,
67,
-13,
108,
70,
-12,
34,
-35,
76,
-7,
-46,
-35,
57,
-23,
-4,
126,
32,
80,
59,
-50,
38,
-42,
33,
-67,
-109,
85,
93,
-17,
80,
-114,
-51,
54,
-48,
63,
34,
22,
50,
67,
-14,
125,
60,
67,
-38,
-11,
-84,
86,
-12,
76,
38,
46,
-102,
-51,
-124,
-70,
-119,
21,
-112,
102,
4,
-33,
-13,
80,
20,
-61,
-113,
54,
88,
64,
-7,
-54,
61,
-75,
-115,
-104,
42,
55,
-19,
29,
3,
-109,
-53,
-100,
94,
78,
-42,
103,
98,
100,
-51,
-26,
66,
-65,
53,
-41,
1,
67,
-115,
88,
-125,
5,
-94,
64,
-70,
45,
-41,
99,
-27,
67,
0,
-25,
-43,
-54,
3,
-76,
23,
-40,
26,
-6,
-68,
-26,
95,
125,
-92,
21,
83,
37,
87,
95,
-3,
90,
100,
-97,
-102,
-98,
75,
-16,
0,
47,
50,
-1,
-105,
6,
72,
-103,
57,
-32,
-16,
82,
-39,
-85,
-72,
-72,
39,
-36,
-52,
-5,
0,
-92,
89,
-4,
125,
61,
-102,
-105,
-38,
-27,
-122,
89,
-108,
-73,
-40,
41,
60,
32,
65,
117,
-1,
-79,
71,
87,
90,
-1,
14,
2,
90,
90,
-4,
89,
-3,
-43,
84,
121,
-109,
110,
15,
107,
-45,
20,
69,
101,
-54,
28,
15,
-122,
-68,
-48,
122,
-70,
-127,
-62,
16,
90,
64,
-97,
-36,
-102,
-8,
87,
114,
116,
44,
70,
109,
62,
-76,
-4,
-87,
6,
15,
109,
107,
88,
-118,
-6,
-35,
68,
-55,
87,
126,
-55,
-103,
14,
-92,
88,
-84,
126,
113,
35,
-42,
-29,
-105,
-126,
40,
3,
-65,
92,
-2,
-25,
97,
-115,
84,
76,
-28,
93,
-58,
65,
33,
15,
24,
-97,
-41,
-80,
-83,
121,
-120,
-40,
120,
120,
123,
77,
-37,
17,
-50,
2,
-107,
-116,
-34,
18,
113,
-64,
31,
69,
11,
2,
-94,
81,
66,
-61,
95,
89,
96,
-74,
-119,
-115,
-80,
-112,
-27,
39,
7,
95,
115,
-31,
-16,
-63,
99,
-124,
75,
-63,
22,
60,
127,
52,
-126,
11,
-74,
34,
91,
120,
-28,
58,
81,
-59,
-17,
-38,
-47,
-98,
-23,
-75,
68,
-16,
19,
55,
80,
-124,
-9,
51,
6,
-62,
-12,
-100,
-2,
114,
79,
126,
-3,
5,
32,
-40,
-3,
-123,
17,
77,
-55,
0,
38,
-103,
29,
-112,
-50,
-30,
-1,
-32,
24,
78,
98,
15,
-126,
-23,
-48,
-11,
4,
77,
102,
-44,
-53,
-28,
-40,
107,
-69,
-44,
-17,
-52,
-95,
55,
75,
-57,
-49,
-24,
-42,
-100,
-55,
-44,
-4,
97,
33,
-34,
111,
34,
70,
-65,
22,
74,
12,
-3,
29,
86,
-32,
116,
65,
-102,
-56,
-80,
100,
103,
-26,
47,
-82,
53,
23,
-125,
-48,
95,
85,
75,
-64,
-9,
41,
-81,
24,
-17,
-18,
-81,
-71,
121,
-85,
85,
79,
-118,
73,
-111,
-93,
-111,
63,
-120,
-8,
-90,
-74,
37,
-38,
76,
40,
41,
44,
-3,
116,
-21,
115,
29,
26,
12,
11,
7,
-70,
68,
0,
99,
-103,
78,
108,
-30,
94,
-113,
113,
-98,
21,
-23,
-61,
75,
-113,
-100,
23,
-74,
-60,
66,
50,
-72,
-82,
-90,
-44,
-57,
-79,
95,
77,
105,
-93,
76,
76,
-69,
26,
56,
-100,
120,
-58,
-114,
-106,
91,
117,
87,
-90,
-124,
114,
60,
56,
53,
126,
-21,
109,
43,
-112,
64,
113,
-64,
31,
-66,
40,
65,
-118,
-12,
-4,
-93,
-84,
23,
26,
112,
-92,
47,
75,
-102,
-122,
112,
-99,
-9,
-83,
85,
-83,
42,
63,
25,
-43,
-50,
-39,
69,
-115,
120,
2,
52,
-71,
11,
-88,
52,
-83,
82,
75,
71,
66,
110,
-10,
-114,
-120,
123,
-3,
36,
-14,
41,
120,
30,
82,
-73,
54,
-89,
4,
-112,
-21,
16,
7,
108,
-60,
-65,
118,
106,
-13,
-92,
-68,
-66,
106,
125,
43,
95,
10,
51,
90,
-120,
86,
76,
48,
78,
-22,
3,
-123,
32,
-87,
-120,
-81,
-108,
23,
53,
-1,
-38,
-13,
-10,
-60,
101,
-103,
-1,
34,
2,
123,
-50,
-31,
6,
-127,
59,
13,
86,
7,
60,
-92,
-16,
62,
39,
-112,
-25,
46,
-66,
121,
68,
-14,
-8,
-98,
101,
-19,
96,
-54,
5,
94,
108,
6,
-39,
-70,
103,
94,
57,
-94,
106,
15,
40,
-89,
-78,
23,
-28,
88,
39,
74,
6,
-28,
67,
-54,
-42,
59,
102,
58,
-88,
70,
-124,
-83,
-92,
111,
50,
-4,
40,
-103,
90,
-31,
-70,
-60,
-17,
-31,
-22,
32,
120,
-50,
119,
31,
23,
-3,
2,
-37,
-58,
87,
21,
-84,
-111,
60,
-15,
-107,
-24,
20,
3,
-101,
-111,
43,
-77,
-22,
-116,
108,
45,
122,
-51,
23,
-102,
-59,
100,
-110,
-29,
-5,
-114,
101,
-43,
-44,
-68,
105,
126,
-51,
-90,
-16,
96,
13,
-124,
98,
39,
19,
13,
-38,
124,
-103,
-58,
-86,
18,
-110,
64,
43,
-41,
-92,
-68,
57,
30,
-54,
-98,
-13,
29,
89,
-36,
-101,
-90,
-127,
10,
5,
14,
-114,
-25,
52,
32,
-12,
13,
-99,
-116,
-46,
-58,
29,
-28,
5,
-56,
58,
40,
4,
114,
69,
-51,
-111,
-72,
105,
105,
20,
-124,
14,
20,
-114,
-109,
33,
-101,
120,
85,
-70,
107,
-30,
-42,
118,
52,
-101,
19,
-104,
31,
-37,
-47,
70,
-34,
-61,
12,
42,
-45,
67,
-109,
59,
86,
21,
-55,
106,
34,
90,
11,
-68,
-45,
-32,
-10,
-66,
66,
75,
-75,
117,
-26,
-57,
-115,
4,
-95,
92,
-53,
-2,
-97,
86,
-88,
113,
25,
57,
44,
111,
-49,
-11,
89,
-16,
-49,
-28,
44,
-95,
-60,
-94,
-33,
5,
-20,
-109,
-6,
81,
-39,
-122,
-42,
121,
-31,
-96,
-9,
-1,
117,
-97,
-16,
-114,
87,
28,
124,
37,
16,
85,
-106,
-34,
57,
65,
-1,
-4,
98,
93,
-127,
-50,
-17,
121,
31,
-57,
-2,
116,
-64,
94,
19,
55,
-35,
8,
-43,
-51,
-107,
-84,
-24,
-110,
-47,
119,
-26,
-26,
-43,
30,
-89,
83,
-102,
8,
-80,
25,
85,
30,
18,
115,
101,
15,
103,
-91,
-19,
-6,
-37,
-54,
1,
47,
-106,
22,
-37,
-3,
-89,
43,
115,
-116,
-111,
-56,
42,
54,
27,
-61,
-66,
74,
-36,
18,
104,
109,
6,
77,
124,
108,
-15,
-23,
-25,
76,
50,
-25,
-5,
71,
-4,
-43,
67,
-94,
127,
54,
-82,
15,
-2,
-41,
-59,
24,
-103,
2,
97,
-12,
20,
73,
97,
-102,
-106,
93,
-122,
7,
-58,
107,
-45,
-8,
-45,
-51,
62,
-50,
-94,
-126,
-16,
-95,
-73,
-99,
48,
52,
114,
-12,
75,
-117,
-10,
45,
-1,
-118,
117,
95,
-93,
-116,
60,
-88,
18,
1,
-108,
-28,
-8,
101,
-80,
54,
50,
-47,
55,
-94,
113,
109,
61,
-95,
-94,
47,
20,
108,
58,
-118,
-103,
56,
18,
-113,
23,
52,
-102,
82,
-36,
-85,
82,
110,
-114,
-53,
-45,
-67,
-127,
-123,
-114,
-73,
38,
126,
35,
-29,
-97,
68,
-109,
50,
-79,
76,
-68,
-55,
-124,
77,
86,
-102,
-126,
111,
107,
-35,
-102,
61,
74,
-89,
7,
-99,
99,
7,
-95,
112,
-67,
70,
110,
96,
-86,
12,
36,
-68,
61,
-44,
7,
-8,
-99,
10,
-58,
114,
35,
70,
98,
-114,
34,
-5,
-54,
-20,
-94,
81,
8,
4,
87,
-88,
-12,
-107,
110,
97,
116,
23,
-19,
-104,
-46,
41,
107,
-40,
-94,
-120,
-31,
102,
121,
3,
44,
-37,
16,
77,
86,
89,
-71,
-9,
42,
-64,
122,
2,
-25,
109,
-106,
84,
78,
-118,
106,
58,
32,
-68,
98,
11,
19,
-124,
18,
-13,
105,
-116,
117,
-107,
-26,
5,
97,
59,
94,
-102,
49,
8,
88,
43,
9,
-64,
-104,
30,
-108,
-27,
-89,
-2,
-97,
-57,
57,
-126,
81,
76,
4,
99,
-65,
-18,
-18,
52,
-126,
83,
-71,
99,
-113,
-105,
-4,
63,
-97,
-43,
106,
-89,
20,
-126,
-59,
-89,
-25,
106,
36,
-123,
-79,
93,
5,
2,
-87,
-118,
-27,
102,
118,
-46,
26,
119,
-91,
83,
-38,
50,
-23,
86,
-14,
-121,
-85,
91,
45,
-66,
-36,
113,
99,
66,
91,
-120,
-57,
-115,
100,
-53,
-114,
12,
-44,
113,
-14,
73,
-61,
-115,
65,
102,
-33,
-101,
25,
71,
-16,
10,
-50,
26,
-27,
122,
-41,
-64,
107,
58,
2,
-58,
65,
72,
81,
-91,
-109,
94,
48,
102,
79,
-94,
47,
17,
-82,
111,
-8,
12,
-117,
-111,
83,
-6,
-102,
-95,
20,
125,
26,
-22,
-67,
-123,
-92,
62,
-54,
100,
-122,
27,
-119,
-103,
120,
-72,
-2,
-56,
-38,
-83,
88,
7,
-99,
-48,
19,
38,
95,
-26,
31,
120,
-122,
50,
117,
31,
28,
-77,
35,
63,
-16,
-20,
-92,
-10,
-121,
43,
-114,
127,
99,
11,
-57,
-67,
55,
30,
-61,
-45,
110,
85,
-8,
77,
-69,
23,
-58,
63,
-55,
-69,
-34,
100,
108,
0,
-92,
-35,
108,
70,
-46,
114,
-15,
-33,
-15,
83,
105,
-73,
15,
-96,
85,
82,
114,
-61,
-89,
-22,
15,
97,
-127,
84,
32,
73,
15,
126,
-83,
122,
-2,
-48,
86,
105,
-106,
-88,
-36,
-121,
6,
76,
89,
110,
3,
-23,
-113,
-40,
58,
0,
-102,
96,
105,
40,
-63,
-22,
-3,
97,
50,
11,
-33,
94,
5,
-36,
46,
-36,
-58,
67,
-125,
33,
-55,
-119,
108,
-93,
118,
110,
-117,
4,
-58,
-60,
-124,
-33,
35,
-19,
7,
100,
-42,
-124,
-59,
-120,
-114,
35,
101,
18,
-2,
19,
-19,
-61,
86,
111,
-29,
-97,
119,
-48,
64,
109,
61,
-54,
-14,
3,
13,
116,
-31,
-79,
-31,
103,
-107,
54,
-22,
88,
61,
-9,
-5,
-93,
9,
-8,
-75,
117,
59,
10,
-28,
-98,
41,
-37,
108,
104,
72,
42,
-77,
57,
-83,
63,
45,
13,
-17,
14,
-11,
-125,
-60,
94,
90,
1,
85,
84,
35,
-34,
-51,
-41,
82,
7,
97,
-73,
36,
-118,
-111,
-111,
113,
88,
58,
-92,
17,
-26,
-29,
62,
114,
81,
-52,
102,
84,
-113,
-59,
-82,
15,
-102,
-125,
49,
-9,
-49,
-119,
72,
85,
105,
126,
120,
-14,
-112,
-119,
-29,
-25,
-62,
-121,
-8,
39,
104,
-74,
-102,
57,
-127,
127,
-115,
-113,
67,
-69,
30,
-36,
60,
-49,
-46,
-117,
86,
-101,
-33,
-65,
24,
86,
48,
39,
95,
-108,
14,
-95,
25,
-122,
-56,
1,
58,
-31,
57,
58,
95,
-58,
72,
35,
127,
101,
126,
59,
-75,
-47,
-59,
10,
106,
-93,
73,
2,
120,
-7,
41,
87,
-116,
-73,
-8,
36,
-68,
-65,
36,
-11,
31,
-34,
-81,
125,
-93,
-10,
-96,
-94,
-36,
-97,
92,
-112,
110,
-95,
25,
88,
-61,
97,
89,
-69,
-37,
2,
18,
-26,
56,
9,
10,
-13,
-57,
45,
-25,
101,
-117,
21,
-30,
-83,
11,
2,
77,
102,
-96,
41,
-11,
-114,
-55,
13,
-27,
-117,
-17,
61,
69,
73,
-64,
86,
46,
-9,
94,
55,
106,
-91,
-27,
-47,
9,
110,
-26,
106,
27,
112,
-20,
-24,
-42,
11,
-110,
74,
-104,
89,
-41,
123,
100,
69,
57,
41,
-114,
120,
-1,
-68,
-17,
-35,
114,
88,
1,
-41,
41,
9,
-58,
-113,
-13,
-32,
-2,
95,
71,
-45,
105,
-40,
-99,
-126,
-78,
114,
124,
-106,
-72,
-75,
-66,
68,
-83,
60,
127,
-100,
24,
114,
115,
24,
72,
28,
-95,
13,
-86,
-109,
108,
-89,
-15,
52,
-7,
-37,
-116,
-107,
91,
60,
7,
-41,
81,
62,
12,
-113,
2,
56,
-54,
-126,
83,
-31,
115,
-57,
120,
-69,
-30,
24,
-56,
12,
43,
-76,
-78,
-100,
-25,
43,
-10,
114,
63,
80,
46,
-58,
-88,
127,
3,
51,
13,
5,
106,
87,
6,
-66,
55,
120,
4,
48,
50,
-27,
71,
121,
-16,
-14,
-82,
34,
14,
-108,
-51,
3,
-122,
11,
-44,
-76,
-47,
122,
-77,
83,
45,
63,
87,
-105,
-106,
-35,
-44,
77,
84,
-41,
-3,
7,
60,
67,
0,
-84,
-74,
-83,
77,
-61,
64,
25,
-59,
-59,
36,
-104,
-8,
116,
-110,
42,
-57,
-66,
-22,
-97,
-43,
126,
122,
-88,
75,
79,
126,
71,
85,
58,
11,
-43,
-27,
64,
-126,
50,
2,
-63,
-53,
70,
5,
-18,
94,
125,
-30,
-17,
39,
41,
-83,
16,
-57,
-127,
15,
-63,
-88,
89,
15,
37,
33,
-28,
-33,
-84,
-71,
-60,
-21,
57,
117,
108,
121,
63,
-78,
-2,
-82,
15,
-5,
-113,
126,
34,
-73,
42,
49,
-3,
42,
63,
62,
81,
25,
76,
-9,
-70,
-79,
-43,
100,
-23,
-104,
-49,
-94,
12,
58,
26,
75,
107,
-104,
-8,
122,
-109,
6,
120,
52,
61,
34,
100,
57,
75,
36,
118,
-100,
60,
67,
-110,
117,
115,
-25,
-39,
91,
125,
-89,
-4,
10,
96,
-106,
84,
-53,
-83,
-52,
-59,
62,
-47,
60,
-14,
13,
93,
86,
-57,
40,
-6,
-67,
68,
-74,
127,
85,
42,
-14,
59,
-125,
-51,
57,
-87,
-56,
66,
8,
-35,
22,
82,
-118,
-31,
-104,
71,
49,
-45,
57,
-65,
-79,
15,
-123,
88,
8,
-63,
28,
61,
64,
113,
102,
-78,
44,
-24,
126,
-27,
16,
-58,
38,
23,
-93,
59,
104,
-84,
-100,
-1,
114,
77,
82,
-85,
11,
-125,
57,
15,
90,
-63,
-49,
118,
-3,
-113,
103,
-29,
64,
-109,
74,
-66,
-8,
89,
3,
29,
111,
-91,
-39,
88,
-48,
-12,
-41,
66,
64,
-87,
108,
-53,
-85,
-90,
-39,
5,
101,
40,
122,
-29,
54,
-31,
-59,
117,
-13,
-112,
-77,
-22,
-24,
-74,
-120,
-40,
-38,
95,
47,
-86,
-45,
-122,
107,
19,
-81,
-41,
93,
88,
-4,
-73,
92,
-30,
94,
-42,
-60,
-108,
54,
8,
9,
-86,
-105,
59,
19,
126,
-16,
-102,
85,
74,
120,
4,
-13,
75,
9,
93,
-34,
-73,
-76,
58,
15,
-80,
-16,
106,
-111,
77,
-63,
-44,
97,
-10,
91,
105,
31,
-14,
36,
50,
-16,
20,
-53,
-59,
93,
-60,
-56,
-48,
14,
-48,
-83,
107,
-121,
-32,
-91,
-107,
-113,
21,
126,
-97,
-30,
62,
113,
66,
-75,
-51,
43,
83,
62,
-48,
-123,
45,
-29,
-48,
-15,
-64,
-109,
56,
15,
32,
-120,
59,
11,
-114,
26,
-81,
-94,
-87,
67,
32,
-57,
-90,
-34,
-71,
103,
18,
-123,
19,
101,
66,
-30,
105,
-17,
68,
56,
95,
-124,
74,
-105,
-110,
-22,
-98,
-52,
-12,
43,
-27,
35,
-52,
13,
-26,
-21,
-44,
-117,
73,
-116,
114,
90,
-112,
-123,
-65,
81,
101,
40,
63,
41,
-32,
30,
-84,
-85,
52,
-67,
-108,
-47,
8,
8,
-5,
-20,
42,
71,
121,
15,
49,
-51,
26,
-6,
-40,
-116,
84,
-25,
-112,
-109,
55,
-12,
58,
-10,
-99,
-101,
19,
71,
68,
70,
3,
87,
-105,
10,
94,
18,
117,
8,
88,
110,
23,
-119,
-69,
-79,
-125,
-110,
-68,
86,
119,
74,
-24,
46,
-66,
-93,
-92,
89,
60,
54,
32,
127,
123,
-93,
-42,
-109,
-84,
-75,
-92,
-95,
-68,
-5,
-112,
82,
3,
73,
2,
5,
91,
-67,
90,
82,
-121,
-61,
-127,
67,
100,
-92,
-100,
32,
-38,
-69,
31,
-43,
92,
-12,
102,
-120,
40,
9,
-87,
-28,
-124,
-72,
53,
-121,
-127,
-72,
-117,
-37,
-12,
101,
45,
122,
-88,
45,
-67,
-116,
80,
-39,
-85,
41,
19,
-55,
-2,
-16,
60,
-28,
-9,
100,
109,
31,
-56,
-16,
86,
-4,
117,
-41,
51,
-127,
-79,
39,
-27,
93,
33,
-116,
10,
-35,
22,
90,
53,
64,
3,
-55,
8,
0,
56,
-60,
100,
46,
-88,
-47,
-50,
110,
-64,
35,
-21,
-74,
-7,
29,
53,
42,
-60,
-102,
7,
-28,
-91,
17,
65,
58,
-21,
117,
121,
-19,
-66,
1,
109,
-11,
-60,
-47,
35,
107,
-95,
112,
-39,
-32,
-109,
67,
-107,
12,
96,
73,
-74,
35,
98,
-68,
7,
6,
76,
71,
63,
-73,
60,
56,
-92,
-6,
56,
16,
-18,
124,
96,
-111,
-25,
0,
0,
63,
-33,
19,
-125,
-12,
-97,
98,
-67,
83,
-123,
31,
-113,
11,
36,
91,
-46,
-28,
17,
-113,
27,
52,
-120,
-44,
67,
-11,
79,
-93,
-122,
-74,
34,
5,
-12,
-126,
-104,
-10,
116,
53,
87,
-79,
8,
92,
-49,
23,
-25,
115,
113,
-71,
86,
2,
70,
-15,
54,
77,
-60,
-7,
65,
-109,
-100,
70,
71,
61,
-52,
-68,
-66,
98,
-79,
-78,
24,
8,
98,
-96,
-28,
48,
-74,
-54,
35,
-89,
-126,
120,
-87,
71,
-22,
-34,
-108,
-83,
-42,
85,
-64,
-15,
-101,
6,
46,
-26,
-63,
107,
72,
113,
29,
-32,
-7,
-1,
126,
-36,
-81,
-75,
37,
-46,
90,
39,
-54,
2,
109,
-77,
95,
-126,
-32,
-74,
86,
-97,
38,
112,
-92,
83,
86,
100,
63,
-98,
85,
91,
-3,
-50,
-38,
122,
-87,
-120,
46,
-51,
88,
-119,
115,
34,
10,
-31,
-44,
-22,
-30,
-77,
-97,
55,
80,
68,
-89,
116,
-104,
-4,
88,
86,
25,
-83,
-79,
21,
-6,
-118,
-112,
-94,
-111,
61,
-18,
-23,
69,
97,
-117,
-48,
-62,
-34,
-71,
35,
17,
-41,
89,
-31,
26,
127,
84,
49,
123,
44,
-121,
20,
88,
-73,
41,
81,
-64,
56,
114,
80,
116,
96,
-71,
58,
65,
-61,
9,
-125,
-96,
65,
-91,
48,
23,
-3,
17,
-79,
-4,
-27,
98,
118,
17,
-24,
-117,
104,
31,
51,
-70,
-34,
106,
43,
-82,
94,
11,
-26,
24,
-52,
-88,
32,
77,
-56,
96,
-15,
119,
-9,
109,
-120,
-88,
105,
-19,
-118,
95,
-3,
112,
105,
-27,
15,
28,
-98,
-19,
-122,
73,
26,
100,
83,
0,
123,
-96,
39,
28,
-20,
110,
-4,
93,
-26,
-13,
74,
-19,
26,
51,
-39,
-93,
-109,
85,
-109,
123,
58,
-94,
-104,
87,
14,
-99,
32,
39,
-127,
-12,
-89,
124,
-109,
78,
-104,
125,
-68,
-109,
90,
33,
5,
-91,
-113,
30,
-41,
-25,
64,
-23,
60,
-45,
-27,
-10,
-12,
-4,
-51,
1,
-104,
-19,
39,
-103,
-32,
78,
20,
113,
-100,
43,
110,
86,
61,
-55,
-8,
66,
-19,
-122,
-32,
67,
107,
32,
-83,
39,
114,
-111,
28,
101,
12,
105,
101,
35,
85,
12,
-69,
-75,
89,
-50,
37,
-12,
-8,
19,
-53,
53,
91,
-62,
-9,
71,
70,
-42,
11,
-79,
117,
-73,
88,
103,
-57,
115,
76,
-46,
92,
49,
-12,
-79,
61,
47,
-27,
22,
-4,
-118,
-117,
116,
-99,
84,
41,
-9,
21,
-96,
-65,
-37,
-11,
-55,
11,
106,
-1,
98,
81,
-59,
86,
-98,
22,
-78,
-50,
-118,
-29,
-117,
-72,
-57,
-95,
52,
80,
-85,
40,
-20,
-2,
-47,
98,
-109,
111,
32,
-19,
-28,
104,
-9,
-50,
-25,
-38,
31,
43,
47,
60,
64,
96,
9,
74,
66,
20,
-126,
9,
52,
53,
88,
-34,
-35,
-60,
91,
-83,
37,
-19,
-100,
-58,
89,
127,
-82,
-48,
76,
-107,
-87,
-21,
-65,
87,
38,
127,
-72,
-80,
73,
-7,
-61,
-54,
1,
-10,
127,
-39,
83,
91,
-100,
-82,
-119,
65,
26,
35,
-121,
114,
34,
-76,
65,
-17,
71,
-22,
-39,
-121,
64,
-1,
-122,
119,
-82,
-50,
112,
111,
-105,
-15,
-27,
-106,
-54,
55,
-15,
-27,
-28,
120,
-90,
125,
27,
-84,
-17,
-66,
-32,
-80,
-84,
-89,
25,
-124,
44,
-38,
2,
-79,
80,
47,
125,
-64,
-98,
-107,
49,
2,
41,
122,
-71,
-102,
-33,
28,
-110,
-123,
-103,
-83,
-80,
7,
-22,
-113,
-73,
-107,
53,
-49,
-104,
-31,
-88,
-102,
-110,
120,
-56,
-113,
-72,
-26,
-93,
-24,
103,
76,
97,
32,
-27,
64,
59,
-9,
68,
-44,
35,
-13,
-38,
12,
2,
16,
-96,
-73,
-33,
54,
-105,
6,
79,
-88,
125,
-104,
-73,
53,
-3,
88,
-99,
99,
36,
-2,
3,
-118,
-66,
62,
127,
1,
-110,
-94,
115,
-21,
-83,
116,
-5,
-52,
42,
89,
1,
65,
94,
-47,
-24,
92,
-24,
-98,
17,
-28,
118,
-83,
-57,
-102,
42,
-54,
34,
-25,
7,
-95,
103,
24,
-62,
-37,
2,
109,
-49,
-4,
56,
-7,
84,
-70,
57,
51,
10,
-95,
15,
-15,
62,
-96,
84,
-76,
-52,
26,
-51,
-10,
-29,
-17,
92,
105,
15,
-60,
-127,
81,
-98,
-125,
62,
107,
-2,
118,
-28,
-45,
-80,
-99,
-122,
57,
61,
20,
-86,
-5,
-77,
-3,
46,
125,
22,
-6,
-13,
121,
104,
79,
98,
-8,
-109,
-29,
-55,
-80,
-27,
6,
26,
98,
-4,
126,
-75,
-85,
26,
57,
99,
-41,
76,
12,
81,
-2,
8,
126,
-4,
-97,
-7,
-18,
-104,
-31,
-67,
-7,
88,
78,
91,
32,
125,
-64,
38,
-104,
34,
-94,
-106,
86,
-51,
47,
-112,
47,
6,
91,
59,
-41,
-38,
-61,
85,
-43,
-31,
-50,
66,
119,
46,
127,
-15,
-121,
77,
75,
38,
-53,
-116,
-52,
-30,
45,
109,
118,
-125,
57,
-91,
17,
103,
42,
108,
34,
1,
-58,
-27,
-42,
-102,
69,
35,
91,
-67,
80,
-38,
45,
86,
39,
119,
124,
113,
-125,
-56,
82,
-81,
-75,
-56,
49,
-19,
-20,
-62,
-43,
22,
-82,
118,
22,
114,
90,
107,
11,
32,
-114,
102,
-36,
-35,
-64,
8,
-76,
102,
-1,
-80,
-41,
-126,
118,
40,
-80,
43,
111,
-32,
-104,
91,
-94,
107,
112,
78,
-30,
6,
-63,
-68,
-15,
75,
-37,
125,
49,
54,
-38,
-15,
-66,
-115,
-41,
61,
59,
-82,
-66,
-78,
85,
108,
92,
-59,
-51,
-13,
31,
-18,
-33,
15,
59,
-64,
-107,
123,
-5,
-123,
-57,
-42,
-126,
119,
-116,
90,
-24,
73,
103,
-65,
6,
-94,
-20,
-61,
-45,
64,
-81,
46,
-123,
-5,
-94,
35,
-24,
127,
-78,
-92,
-65,
69,
30,
-71,
73,
100,
14,
-54,
-36,
-102,
36,
67,
98,
11,
1,
103,
-84,
-20,
-86,
-1,
-83,
-40,
-83,
48,
-45,
77,
-44,
58,
76,
-123,
-35,
10,
-54,
123,
-61,
18,
-33,
-48,
92,
58,
-23,
0,
125,
-53,
10,
-2,
49,
-75,
-22,
90,
51,
22,
50,
-32,
-58,
-123,
-83,
-103,
62,
-7,
29,
27,
2,
102,
22,
68,
-8,
-12,
20,
83,
-81,
124,
82,
43,
71,
-36,
40,
-8,
17,
-110,
82,
67,
39,
4,
-93,
-19,
8,
79,
5,
69,
71,
-94,
-32,
-55,
7,
-11,
13,
127,
-23,
-95,
82,
-105,
-99,
37,
65,
-29,
0,
104,
-37,
16,
122,
-83,
-44,
-95,
-80,
117,
13,
-73,
-60,
18,
123,
-117,
-77,
91,
83,
58,
79,
-32,
57,
-72,
0,
-117,
-50,
-100,
-81,
14,
-1,
47,
-9,
-39,
62,
-15,
5,
-110,
-111,
-76,
7,
-98,
-22,
-54,
47,
-27,
-43,
97,
63,
-88,
27,
15,
-121,
83,
70,
6,
94,
20,
-95,
12,
-94,
-97,
58,
24,
-9,
-7,
8,
-5,
-118,
25,
46,
16,
54,
-104,
90,
-27,
124,
46,
69,
59,
-43,
96,
73,
-37,
51,
-112,
-32,
-111,
35,
0,
-99,
68,
-97,
86,
-35,
21,
-49,
100,
16,
-39,
124,
-66,
-24,
50,
85,
-62,
22,
81,
-17,
91,
-116,
67,
59,
85,
29,
109,
100,
124,
-2,
-121,
124,
26,
74,
-101,
-16,
38,
-81,
63,
-117,
-66,
-104,
-121,
-4,
-1,
-71,
-47,
-63,
78,
33,
-81,
41,
44,
114,
99,
-127,
-113,
81,
100,
-116,
-49,
-22,
7,
104,
-75,
-95,
-40,
-38,
78,
-105,
99,
-115,
45,
106,
8,
44,
34,
-40,
108,
111,
120,
26,
-103,
-92,
12,
123,
-91,
-101,
76,
-119,
-90,
26,
114,
-84,
-126,
38,
-52,
-38,
127,
-102,
111,
99,
-90,
29,
-51,
-83,
72,
-18,
-124,
52,
-35,
123,
-50,
-11,
-96,
-38,
-15,
-60,
-12,
60,
75,
-103,
86,
61,
-60,
87,
-29,
-113,
-79,
98,
-88,
32,
-59,
77,
60,
17,
-7,
4,
126,
-3,
55,
90,
-8,
4,
-48,
-105,
-35,
-64,
89,
-48,
-5,
-91,
-24,
-47,
-31,
-85,
40,
-60,
-71,
-40,
-90,
96,
119,
-22,
-83,
51,
-6,
37,
54,
119,
-94,
-19,
81,
-102,
-15,
32,
47,
77,
-33,
9,
-98,
90,
45,
-123,
42,
13,
47,
-46,
80,
-25,
42,
117,
70,
-95,
94,
114,
-44,
-40,
24,
-118,
78,
57,
118,
32,
-46,
-25,
63,
-126,
51,
-97,
10,
-48,
-8,
54,
-43,
33,
-61,
3,
-13,
-108,
105,
-99,
8,
-80,
60,
-25,
-94,
-112,
-66,
57,
25,
-115,
114,
15,
-84,
-60,
-11,
-22,
-59,
-88,
8,
-50,
-8,
-1,
3,
-52,
-95,
-58,
78,
19,
88,
-73,
-81,
-32,
101,
-22,
-58,
-120,
-6,
-124,
-64,
18,
-112,
49,
-95,
58,
117,
-107,
-92,
57,
59,
-84,
7,
50,
-86,
9,
125,
-54,
78,
-53,
-36,
38,
-126,
-118,
6,
102,
-12,
-53,
109,
109,
-50,
45,
126,
92,
-34,
-97,
22,
82,
50,
-70,
-116,
-19,
100,
18,
-96,
-114,
26,
28,
87,
-23,
103,
50,
14,
-24,
60,
-108,
-50,
-80,
94,
59,
28,
-84,
103,
26,
8,
-59,
-72,
29,
23,
-23,
86,
34,
85,
-70,
51,
-12,
-56,
-51,
-111,
30,
53,
-9,
-48,
67,
-34,
11,
86,
-85,
58,
-76,
101,
85,
-32,
-52,
110,
103,
17,
37,
4,
-88,
-114,
90,
-55,
-29,
-108,
123,
86,
90,
-56,
-26,
119,
-3,
-36,
71,
-64,
57,
-46,
21,
100,
12,
73,
-55,
-31,
40,
21,
79,
-113,
37,
-12,
-110,
-52,
-126,
107,
20,
-28,
-1,
15,
-70,
88,
-42,
-96,
-48,
82,
-5,
-105,
-110,
-75,
-24,
-89,
-103,
115,
111,
96,
84,
-105,
-11,
-93,
-91,
-102,
22,
-74,
-27,
23,
33,
-8,
-6,
31,
-121,
52,
118,
-35,
83,
69,
46,
77,
91,
-64,
-126,
67,
-26,
25,
-74,
84,
-6,
-118,
106,
-18,
43,
14,
-120,
-62,
-61,
107,
-40,
-29,
-28,
-46,
1,
105,
5,
-8,
69,
87,
60,
-12,
36,
24,
51,
-90,
-37,
24,
62,
-112,
-20,
55,
-102,
85,
37,
68,
98,
44,
5,
-91,
23,
-35,
8,
-6,
-82,
8,
-28,
50,
-1,
-87,
9,
-68,
-100,
-83,
83,
-50,
-46,
45,
101,
16,
60,
80,
-57,
-43,
-91,
107,
25,
-121,
-105,
29,
43,
46,
-7,
50,
39,
38,
-70,
-117,
-40,
57,
51,
96,
116,
78,
13,
-57,
-99,
94,
-13,
1,
-18,
-81,
-46,
-75,
-124,
117,
-96,
-100,
124,
-73,
56,
39,
-28,
49,
88,
-117,
-41,
-110,
21,
-81,
74,
71,
14,
-66,
-107,
-101,
4,
48,
121,
118,
-78,
102,
37,
-125,
-101,
-88,
119,
58,
-61,
-13,
-16,
-6,
25,
83,
-85,
-15,
-35,
-126,
3,
-15,
-80,
76,
-72,
61,
-117,
76,
88,
-114,
-4,
-47,
4,
45,
-73,
40,
-81,
81,
79,
-89,
11,
17,
25,
122,
-117,
50,
-51,
-74,
-93,
-87,
-73,
37,
26,
-26,
113,
-47,
34,
123,
-99,
121,
8,
-103,
-54,
-116,
69,
-127,
-77,
116,
81,
-126,
26,
91,
18,
50,
85,
29,
-28,
-94,
-46,
7,
-54,
8,
43,
-29,
-19,
28,
-76,
14,
-105,
79,
8,
31,
103,
-47,
-86,
-83,
-47,
-35,
32,
33,
-34,
-70,
-4,
-16,
107,
-47,
-115,
79,
113,
93,
-42,
59,
-27,
-127,
29,
-47,
-99,
-48,
94,
-77,
-96,
101,
81,
6,
-73,
123,
-78,
-121,
-40,
81,
40,
-75,
-117,
35,
36,
-10,
-12,
-80,
-59,
-27,
-115,
-102,
31,
112,
25,
60,
-63,
53,
-116,
31,
104,
42,
4,
57,
-79,
-70,
-76,
-30,
-63,
11,
-76,
-24,
64,
61,
-117,
-28,
50,
-2,
-108,
-10,
-29,
-96,
15,
1,
-111,
40,
-67,
80,
-35,
-55,
110,
68,
114,
-13,
-2,
34,
44,
-79,
-123,
-20,
60,
55,
83,
123,
115,
94,
94,
-90,
-36,
113,
27,
-66,
17,
42,
63,
33,
-46,
123,
112,
-82,
-60,
95,
114,
54,
81,
111,
-40,
-3,
-96,
91,
105,
-37,
-110,
60,
-42,
-122,
-102,
-75,
42,
117,
37,
-59,
-77,
-74,
-18,
-15,
-42,
63,
-19,
-57,
-19,
-80,
37,
-33,
101,
-10,
77,
61,
-14,
108,
24,
90,
-56,
42,
-105,
-99,
-81,
-80,
80,
88,
36,
-10,
28,
87,
-85,
-117,
71,
1,
-55,
-76,
-57,
53,
99,
107,
19,
-56,
96,
-32,
-123,
-46,
76,
29,
44,
19,
70,
66,
47,
-12,
-15,
127,
-52,
-106,
-11,
103,
-20,
31,
-15,
-77,
31,
58,
-25,
101,
110,
73,
-48,
2,
-111,
-80,
-31,
-106,
-126,
44,
-78,
45,
-65,
-9,
110,
-18,
106,
-33,
-19,
-74,
-12,
-31,
28,
95,
-1,
-114,
-109,
-97,
71,
120,
3,
53,
65,
-45,
54,
-47,
-126,
-104,
-26,
-125,
67,
-105,
-81,
2,
13,
-99,
111,
-9,
123,
91,
-84,
-17,
-68,
72,
78,
-70,
85,
-32,
87,
-100,
-40,
90,
-48,
24,
-83,
-121,
104,
-82,
29,
78,
48,
95,
100,
-34,
-31,
113,
122,
79,
-24,
117,
42,
20,
99,
-27,
91,
-79,
-97,
-80,
16,
117,
-53,
-25,
79,
-102,
126,
-5,
31,
-25,
-87,
-68,
52,
-40,
-100,
24,
53,
123,
-119,
-81,
75,
-15,
35,
116,
4,
7,
89,
94,
-73,
119,
-114,
71,
-20,
87,
45,
59,
112,
-84,
-74,
16,
18,
93,
-53,
-58,
-75,
101,
-35,
-22,
97,
-26,
24,
-84,
-42,
-68,
31,
-39,
-62,
-8,
-73,
-8,
110,
67,
62,
-37,
26,
-20,
-106,
-118,
23,
74,
-103,
40,
40,
-28,
-19,
-36,
72,
-55,
69,
41,
-82,
-34,
-44,
3,
-103,
-13,
-37,
89,
106,
-111,
-47,
-39,
83,
15,
51,
-19,
122,
-56,
-9,
-111,
-110,
15,
56,
-71,
-14,
-91,
21,
-69,
108,
89,
-29,
-101,
54,
55,
29,
78,
-86,
-8,
39,
19,
8,
-8,
107,
-36,
-121,
-98,
72,
0,
-27,
62,
16,
118,
77,
71,
46,
-65,
-21,
-61,
120,
-41,
-99,
-36,
-15,
-46,
18,
14,
-95,
-69,
-122,
-57,
77,
-115,
62,
-71,
-24,
-60,
85,
48,
-61,
-69,
-18,
-46,
48,
58,
-103,
-34,
121,
-125,
-95,
113,
89,
60,
76,
-54,
-114,
-34,
-41,
45,
24,
91,
116,
101,
104,
-78,
29,
79,
117,
-14,
-1,
-72,
-84,
-19,
10,
-37,
-89,
-94,
57,
31,
-91,
-39,
-111,
-3,
20,
92,
70,
33,
58,
29,
78,
81,
-8,
-62,
54,
95,
-13,
82,
-81,
103,
-59,
-83,
-96,
-16,
25,
-87,
75,
-64,
-54,
-124,
-34,
109,
91,
109,
-22,
-17,
-54,
48,
15,
-124,
76,
-35,
84,
67,
30,
-117,
35,
17,
92,
81,
-8,
32,
125,
-105,
16,
-105,
62,
-37,
85,
-119,
93,
50,
-11,
56,
32,
-33,
38,
-23,
14,
-75,
-20,
-38,
18,
63,
-99,
47,
-55,
-65,
63,
37,
15,
-72,
-59,
-115,
77,
84,
-93,
12,
46,
-9,
-108,
11,
-87,
-120,
66,
-56,
-26,
-24,
48,
115,
-99,
27,
76,
-82,
90,
105,
-36,
-93,
39,
-100,
71,
-73,
-45,
-115,
-61,
31,
96,
100,
-85,
-113,
-37,
61,
25,
-125,
69,
91,
-53,
42,
66,
-6,
-98,
-34,
-106,
105,
11,
-17,
-46,
103,
17,
121,
-125,
88,
-80,
84,
100,
-14,
-13,
-60,
-42,
-98,
-46,
-80,
-38,
-21,
-78,
-97,
69,
123,
73,
7,
117,
102,
101,
10,
-49,
111,
120,
33,
86,
-119,
26,
-40,
96,
-55,
-84,
-60,
58,
-97,
-120,
15,
59,
88,
62,
20,
-61,
-17,
51,
7,
106,
123,
14,
-33,
-31,
114,
104,
47,
97,
-32,
79,
-72,
-24,
104,
15,
-55,
-79,
-69,
12,
-22,
88,
19,
120,
-109,
107,
-74,
38,
45,
-91,
88,
-75,
14,
83,
66,
108,
51,
52,
-44,
98,
-107,
51,
49,
-52,
-101,
26,
-37,
-29,
-54,
-107,
-17,
52,
108,
1,
44,
-2,
-20,
-30,
-92,
-102,
6,
124,
-50,
19,
-49,
15,
-1,
-125,
66,
82,
-28,
-42,
5,
-107,
-94,
-97,
-82,
-4,
2,
-8,
-112,
-16,
43,
-5,
112,
86,
120,
92,
-72,
-100,
117,
-67,
23,
66,
79,
102,
80,
77,
-24,
-110,
-97,
75,
-25,
-93,
-33,
8,
-62,
13,
3,
67,
4,
18,
50,
-81,
-115,
-94,
-123,
-123,
125,
60,
32,
-14,
120,
-73,
51,
-56,
28,
3,
-107,
-124,
20,
51,
-50,
-5,
85,
45,
-125,
-105,
-70,
6,
-39,
-67,
-104,
-117,
106,
36,
-83,
110,
-88,
41,
-86,
71,
-100,
-93,
-2,
78,
105,
-102,
81,
-3,
29,
100,
-80,
106,
-33,
-122,
-105,
-30,
27,
-48,
103,
116,
-116,
-2,
-2,
117,
-94,
42,
-28,
-54,
-44,
13,
16,
110,
-81,
13,
60,
23,
-89,
-115,
-107,
67,
113,
67,
-83,
-48,
-56,
-60,
49,
99,
-109,
-104,
-41,
30,
-106,
84,
19,
54,
126,
-10,
-1,
81,
3,
-112,
-65,
-79,
28,
122,
72,
66,
7,
-36,
-123,
-8,
30,
49,
71,
102,
-12,
120,
-55,
-122,
-112,
31,
35,
-91,
114,
54,
-37,
-16,
-84,
89,
64,
-82,
104,
126,
-33,
-123,
-7,
38,
-58,
127,
1,
74,
-9,
-97,
-5,
61,
4,
110,
53,
76,
115,
-59,
106,
-105,
104,
-35,
76,
-61,
76,
-9,
-99,
13,
37,
4,
-117,
3,
8,
3,
40,
-50,
-126,
40,
-104,
119,
70,
-110,
53,
-53,
127,
105,
22,
-14,
45,
1,
-120,
-106,
93,
83,
87,
-87,
-53,
115,
-75,
-17,
119,
-64,
113,
126,
-62,
-103,
-52,
67,
64,
-29,
58,
-122,
115,
110,
-48,
114,
-40,
-26,
100,
4,
-26,
107,
25,
-61,
-65,
-15,
106,
9,
99,
31,
119,
-38,
-34,
-24,
-39,
31,
127,
-92,
97,
63,
-121,
-100,
68,
121,
9,
20,
-20,
96,
121,
79,
100,
-33,
58,
124,
-95,
-8,
108,
10,
-127,
80,
-87,
-9,
41,
6,
-34,
-126,
37,
-35,
37,
6,
27,
43,
33,
-32,
36,
42,
115,
-112,
-118,
-20,
94,
109,
-54,
-103,
106,
-22,
-112,
86,
-13,
16,
-90,
28,
-121,
79,
-94,
100,
-48,
70,
64,
116,
76,
-36,
-97,
108,
-69,
67,
22,
45,
-46,
32,
-103,
48,
13,
-30,
-56,
118,
-53,
-41,
77,
61,
102,
-14,
88,
-19,
-63,
122,
80,
-111,
-64,
16,
4,
-116,
-21,
35,
-8,
37,
101,
-114,
-46,
54,
-83,
105,
101,
58,
74,
44,
-80,
-107,
3,
124,
-46,
-23,
-17,
-86,
-43,
-81,
35,
36,
62,
99,
52,
66,
-18,
30,
100,
101,
-60,
73,
-13,
-107,
126,
31,
126,
100,
88,
-56,
-112,
-119,
-35,
18,
4,
-82,
-5,
-14,
86,
79,
-95,
-6,
115,
-34,
92,
39,
-96,
73,
-59,
-124,
-81,
-120,
-52,
33,
28,
-53,
63,
-102,
46,
-104,
-31,
61,
-96,
-67,
-48,
-93,
-22,
-54,
21,
64,
24,
-75,
57,
11,
18,
-107,
49,
50,
93,
-10,
-75,
-116,
124,
1,
-84,
24,
-53,
-21,
49,
-8,
2,
-109,
52,
33,
-49,
3,
-61,
-71,
76,
87,
120,
-27,
11,
49,
111,
-98,
69,
-95,
-49,
-94,
22,
3,
45,
18,
3,
88,
-85,
77,
66,
-37,
-59,
-60,
-19,
121,
-28,
-68,
-4,
39,
-12,
72,
125,
107,
-83,
9,
28,
27,
-90,
96,
59,
-12,
1,
80,
-10,
-82,
-29,
121,
6,
-115,
-58,
-56,
-25,
-117,
12,
-44,
3,
111,
15,
126,
22,
-125,
-58,
20,
109,
-14,
28,
-119,
-114,
65,
-24,
-56,
52,
104,
-103,
-86,
-105,
-5,
34,
-100,
-121,
104,
-29,
108,
114,
110,
-64,
-11,
-34,
78,
114,
-13,
-48,
-71,
6,
60,
-86,
-94,
68,
54,
-30,
43,
126,
-106,
20,
-105,
63,
-86,
-111,
-31,
-59,
-105,
72,
-89,
-125,
58,
21,
66,
46,
114,
-112,
-95,
-27,
-32,
88,
107,
-100,
-126,
12,
-32,
56,
110,
-117,
-74,
-124,
-98,
-52,
66,
70,
91,
35,
10,
113,
-21,
49,
-13,
37,
-58,
-75,
-45,
55,
-59,
114,
27,
-92,
74,
-122,
62,
-52,
18,
-98,
3,
0,
40,
56,
-125,
69,
3,
-59,
-116,
-34,
103,
21,
78,
81,
-58,
-63,
-10,
-117,
117,
-55,
-63,
57,
-69,
92,
-36,
5,
97,
-102,
80,
114,
-72,
-45,
113,
-33,
10,
116,
35,
-115,
-71,
46,
-22,
31,
-60,
-72,
-16,
-119,
119,
102,
19,
-20,
46,
83,
-91,
104,
-81,
0,
108,
-111,
-102,
60,
2,
80,
14,
-12,
-81,
-104,
103,
81,
35,
31,
0,
12,
-66,
-61,
-61,
-83,
-53,
-69,
18,
93,
-90,
-64,
-79,
-53,
40,
-33,
-54,
20,
110,
98,
80,
-15,
50,
-34,
100,
96,
117,
-53,
50,
-104,
105,
49,
36,
-89,
115,
102,
82,
-66,
32,
-27,
27,
70,
36,
75,
16,
75,
-86,
-39,
-32,
-103,
-68,
47,
-119,
109,
12,
-20,
-50,
1,
54,
127,
-103,
31,
48,
60,
-59,
-93,
-94,
-105,
-32,
-62,
122,
-6,
7,
-97,
68,
-105,
105,
110,
110,
72,
6,
-86,
-9,
-114,
23,
-124,
-7,
100,
-124,
-81,
-29,
-100,
-51,
18,
-41,
17,
52,
120,
-89,
19,
-70,
-94,
-114,
64,
-64,
81,
-42,
40,
-65,
-60,
-15,
-60,
109,
-25,
-47,
-124,
-22,
-55,
103,
109,
118,
-54,
-119,
-61,
-37,
95,
-45,
-113,
87,
-6,
33,
16,
-101,
-82,
79,
89,
127,
-91,
1,
61,
103,
-15,
1,
-44,
88,
81,
-41,
65,
-101,
-66,
46,
16,
-121,
55,
83,
96,
-106,
-90,
110,
108,
-97,
-112,
123,
56,
-67,
74,
17,
59,
-18,
18,
-7,
84,
2,
121,
-87,
-38,
-54,
-1,
-100,
99,
-67,
73,
-12,
66,
127,
-57,
35,
-107,
107,
17,
0,
10,
32,
-5,
65,
-35,
-59,
-45,
-104,
-78,
-28,
-112,
-121,
101,
-119,
-81,
63,
82,
-83,
90,
-75,
-23,
-93,
40,
-84,
-93,
-18,
78,
54,
89,
94,
-73,
-29,
126,
49,
-92,
-37,
-10,
117,
-14,
39,
88,
2,
45,
-66,
-118,
-37,
124,
-37,
8,
-42,
16,
-16,
-8,
-72,
27,
-102,
-90,
104,
80,
126,
71,
-121,
96,
-59,
-73,
3,
31,
44,
120,
-111,
83,
80,
-110,
127,
13,
27,
-37,
9,
117,
-30,
-34,
5,
81,
86,
-67,
108,
111,
-30,
84,
-65,
-32,
-101,
-59,
63,
-33,
-4,
-62,
125,
39,
-70,
14,
-6,
10,
-97,
-6,
22,
57,
-44,
-96,
47,
53,
124,
51,
-122,
82,
111,
113,
-62,
-47,
70,
0,
-80,
-32,
-59,
110,
-65,
-64,
-79,
59,
102,
105,
-55,
96,
114,
103,
-38,
9,
32,
45,
-88,
-49,
97,
-92,
-125,
-26,
-10,
-15,
-40,
-73,
66,
29,
54,
113,
124,
-6,
96,
58,
57,
16,
-10,
-96,
-7,
62,
127,
-20,
37,
88,
116,
69,
-123,
-100,
19,
101,
62,
-107,
-53,
-76,
6,
-94,
-22,
-56,
62,
32,
-71,
-69,
-102,
24,
116,
-45,
-88,
-22,
113,
33,
40,
112,
12,
76,
72,
0,
17,
76,
-101,
-91,
-79,
88,
-71,
122,
12,
62,
-99,
117,
5,
-38,
21,
62,
20,
-81,
85,
-119,
-127,
125,
113,
113,
-98,
25,
-31,
41,
-26,
40,
40,
-10,
-12,
66,
26,
-92,
-102,
-45,
29,
37,
-111,
57,
-101,
-106,
19,
-81,
83,
38,
-35,
-88,
46,
92,
-91,
32,
-51,
-62,
56,
45,
106,
29,
-43,
18,
-108,
-56,
83,
45,
106,
-19,
127,
8,
-110,
16,
64,
43,
37,
-45,
90,
119,
121,
-73,
-97,
-89,
19,
67,
-58,
95,
-123,
-2,
13,
-17,
-101,
-31,
0,
-82,
41,
-44,
-37,
19,
64,
89,
26,
-47,
104,
-37,
124,
13,
45,
86,
-124,
-90,
12,
34,
76,
-97,
-27,
-110,
-2,
104,
15,
-117,
86,
-86,
-21,
-41,
-41,
19,
-86,
-79,
38,
-23,
-117,
-64,
-71,
114,
26,
-75,
127,
71,
10,
2,
108,
22,
-92,
56,
-76,
-120,
-54,
49,
-16,
88,
-69,
-58,
1,
-90,
-100,
88,
56,
-59,
-119,
-34,
45,
18,
-98,
102,
5,
55,
26,
4,
-2,
36,
5,
106,
-70,
41,
34,
108,
-80,
-21,
30,
31,
67,
-40,
-27,
-60,
-3,
127,
27,
-74,
-59,
36,
-109,
-15,
53,
47,
86,
-70,
102,
112,
-67,
99,
20,
66,
77,
-51,
106,
111,
56,
25,
-38,
85,
56,
-99,
-82,
-99,
-31,
42,
-100,
123,
-33,
95,
-97,
113,
80,
84,
32,
38,
13,
-122,
-106,
-54,
105,
-87,
-116,
54,
116,
-11,
37,
45,
-114,
-1,
2,
69,
27,
47,
-31,
-5,
89,
124,
118,
55,
-37,
20,
40,
-85,
103,
72,
-47,
-11,
77,
-26,
62,
54,
-113,
-55,
108,
-125,
-67,
-111,
47,
73,
15,
-78,
-113,
42,
-32,
-17,
36,
-71,
106,
-102,
112,
-58,
46,
-104,
111,
21,
95,
63,
9,
-83,
-90,
70,
-30,
51,
14,
-50,
53,
74,
-33,
-27,
20,
-19,
-106,
34,
-105,
-11,
16,
-69,
-82,
122,
-44,
-98,
-64,
-126,
52,
46,
-105,
-108,
-18,
31,
-64,
-109,
101,
-95,
69,
-13,
-17,
-6,
-66,
-51,
-34,
-47,
57,
-13,
-14,
-48,
104,
1,
10,
-106,
-5,
93,
50,
58,
-33,
101,
104,
-11,
120,
-42,
19,
55,
103,
-8,
88,
44,
107,
70,
37,
40,
-109,
-124,
-8,
75,
-10,
-23,
26,
93,
105,
-92,
114,
-27,
1,
-92,
30,
95,
-118,
6,
83,
1,
-37,
-26,
-71,
-62,
94,
16,
-19,
-55,
-42,
-109,
-16,
-24,
21,
-25,
50,
-117,
79,
-51,
104,
56,
111,
-38,
-99,
-16,
125,
-69,
78,
6,
64,
33,
-121,
27,
-120,
62,
92,
-27,
-50,
73,
-83,
35,
91,
-100,
-117,
-16,
2,
-67,
121,
80,
-119,
-31,
8,
119,
59,
-91,
103,
-72,
94,
53,
61,
30,
86,
-61,
-71,
93,
1,
21,
65,
78,
-34,
-19,
-14,
56,
8,
123,
39,
9,
55,
32,
-39,
63,
1,
-32,
-73,
-68,
4,
-98,
114,
-30,
-46,
-81,
0,
-88,
-15,
-72,
4,
113,
76,
-59,
-64,
41,
49,
-79,
-31,
56,
43,
-120,
-63,
-29,
-88,
25,
-94,
40,
121,
-40,
-29,
124,
116,
84,
94,
-57,
-125,
93,
-18,
114,
-107,
114,
-28,
-31,
54,
35,
-118,
103,
83,
106,
31,
-2,
-15,
96,
-32,
24,
-7,
-126,
63,
113,
-39,
33,
110,
77,
-11,
76,
-108,
-9,
41,
-127,
-22,
-67,
-14,
77,
29,
-87,
-16,
-89,
15,
66,
-111,
-82,
63,
1,
-114,
-96,
25,
-121,
-95,
-40,
119,
120,
121,
-27,
69,
109,
48,
-40,
-27,
88,
-39,
78,
-106,
-54,
-101,
-78,
113,
-118,
-40,
0,
75,
103,
46,
10,
-23,
-69,
41,
1,
64,
73,
-40,
56,
66,
80,
28,
-121,
62,
-51,
-33,
-93,
-91,
-73,
-16,
57,
0,
10,
107,
-14,
-109,
66,
113,
93,
42,
-97,
102,
18,
-38,
-112,
-109,
25,
88,
-22,
80,
-102,
-69,
-19,
32,
-8,
-71,
126,
26,
92,
-75,
9,
22,
-76,
18,
-127,
37,
36,
-62,
-105,
-127,
107,
-75,
102,
-3,
-114,
117,
-113,
39,
-50,
120,
-9,
102,
50,
-29,
-122,
-86,
27,
-124,
-61,
-8,
55,
75,
-114,
-21,
92,
13,
15,
127,
78,
37,
127,
-70,
-38,
-27,
-74,
-25,
90,
-59,
13,
39,
60,
4,
-115,
-18,
102,
-109,
23,
2,
21,
-39,
121,
76,
35,
6,
-73,
-1,
18,
69,
-2,
-32,
-21,
124,
-103,
68,
-31,
-49,
42,
-69,
-109,
55,
-31,
78,
-69,
-18,
-68,
32,
0,
-46,
-94,
-107,
42,
26,
96,
76,
-96,
22,
-53,
-79,
-36,
72,
-111,
70,
68,
-87,
-118,
36,
118,
-77,
-33,
-119,
-23,
63,
-42,
-93,
-83,
-111,
67,
-84,
-30,
100,
64,
11,
-1,
32,
-41,
-98,
-73,
-95,
-49,
-110,
-24,
94,
-41,
43,
-121,
95,
-48,
125,
-110,
46,
5,
122,
108,
91,
-99,
-102,
107,
95,
-59,
77,
-60,
-123,
87,
-62,
-91,
46,
-33,
90,
78,
-83,
107,
-73,
10,
-62,
-31,
17,
-95,
48,
-114,
49,
93,
18,
43,
74,
-19,
-56,
-29,
88,
-89,
-89,
37,
-22,
-84,
123,
43,
79,
41,
10,
-87,
119,
-74,
19,
45,
64,
84,
-114,
-47,
-12,
62,
93,
36,
-101,
-17,
79,
100,
-36,
-105,
70,
-76,
60,
109,
-40,
-89,
24,
-45,
-47,
-25,
-4,
90,
-113,
-13,
16,
33,
-96,
-48,
116,
-83,
-96,
103,
-22,
124,
11,
5,
106,
89,
104,
-58,
111,
47,
120,
44,
28,
79,
-46,
51,
34,
34,
-102,
-98,
124,
39,
16,
12,
-56,
-81,
-37,
-68,
90,
-6,
34,
-59,
117,
44,
-55,
95,
6,
48,
37,
116,
94,
-99,
-96,
-6,
108,
-15,
-83,
14,
19,
69,
43,
15,
-20,
58,
26,
-77,
-24,
116,
109,
-62,
109,
15,
6,
98,
-68,
-50,
-63,
-63,
126,
101,
-75,
92,
-125,
-43,
86,
-18,
-59,
2,
123,
87,
71,
38,
101,
50,
95,
-1,
-27,
-57,
-13,
-46,
8,
-32,
-31,
14,
65,
28,
-37,
-125,
92,
-39,
-25,
16,
53,
104,
100,
-117,
-42,
-86,
-116,
-47,
0,
82,
-10,
-26,
-123,
84,
100,
-23,
-101,
87,
58,
-93,
54,
-101,
-80,
-8,
-74,
10,
121,
17,
-29,
95,
-94,
23,
72,
5,
33,
29,
-82,
44,
110,
46,
126,
99,
-108,
-125,
56,
-9,
-21,
-46,
77,
36,
115,
-124,
-65,
-93,
122,
-12,
45,
115,
5,
15,
82,
38,
-90,
-102,
42,
70,
55,
88,
113,
-91,
6,
-17,
-120,
-103,
-15,
-65,
-113,
-37,
-111,
-36,
127,
-124,
-33,
61,
38,
-39,
-79,
-45,
-52,
-75,
97,
29,
90,
6,
55,
5,
-52,
109,
92,
60,
-110,
-30,
-84,
24,
121,
-100,
87,
7,
-9,
-25,
98,
117,
105,
-63,
-78,
15,
-103,
-30,
-31,
99,
23,
65,
1,
112,
-57,
55,
116,
-110,
36,
-48,
78,
53,
49,
-7,
-51,
-86,
20,
35,
49,
10,
9,
19,
126,
-13,
-44,
-80,
1,
-20,
-110,
98,
79,
-88,
35,
-48,
23,
106,
6,
-116,
-5,
41,
-37,
-55,
-34,
12,
-63,
-86,
53,
-43,
-51,
101,
94,
85,
120,
-35,
71,
-52,
-116,
-55,
-73,
28,
42,
-122,
67,
-51,
84,
90,
54,
89,
101,
49,
2,
-64,
121,
-33,
75,
58,
-119,
1,
-113,
-43,
101,
-20,
41,
93,
72,
112,
-87,
-44,
56,
95,
111,
-30,
-28,
-77,
-82,
56,
-115,
-28,
17,
113,
-107,
-108,
-79,
13,
113,
-4,
-57,
121,
-4,
-43,
77,
-31,
65,
118,
-65,
-119,
102,
102,
91,
30,
69,
75,
-1,
41,
-3,
44,
-31,
9,
-112,
-15,
121,
35,
-124,
41,
-79,
117,
-91,
-9,
110,
32,
-52,
-68,
1,
12,
-78,
63,
20,
23,
-91,
111,
52,
106,
58,
-77,
-109,
-73,
-34,
-13,
-65,
109,
-29,
-72,
16,
-25,
96,
64,
-36,
-122,
55,
73,
-91,
-125,
-123,
37,
-114,
-74,
99,
33,
-52,
-119,
16,
127,
-14,
73,
-78,
4,
-1,
16,
-10,
61,
124,
88,
-12,
12,
-65,
-43,
76,
-102,
89,
-125,
99,
-3,
-123,
103,
-93,
-110,
29,
5,
-78,
104,
13,
-62,
-24,
-2,
10,
25,
1,
-118,
40,
118,
-58,
36,
-49,
58,
48,
-115,
14,
-4,
-89,
-25,
-2,
9,
99,
-126,
111,
5,
18,
12,
-117,
-61,
116,
-105,
-124,
-36,
21,
14,
-12,
-106,
-105,
28,
12,
-36,
63,
-38,
21,
-17,
101,
-93,
-22,
11,
9,
-25,
-108,
108,
-24,
-124,
-15,
-7,
-113,
122,
-68,
2,
-110,
-65,
-35,
-90,
-52,
81,
58,
-30,
108,
69,
-66,
43,
-97,
82,
-101,
-123,
-11,
4,
15,
125,
107,
-93,
105,
82,
-90,
90,
75,
51,
84,
6,
-74,
-27,
-60,
18,
10,
16,
98,
-59,
-15,
78,
-118,
-82,
-6,
40,
-127,
-108,
-84,
116,
-105,
-70,
113,
1,
-36,
-37,
-44,
1,
52,
30,
-75,
8,
-92,
105,
-19,
-25,
-5,
118,
-10,
93,
58,
-25,
-85,
-60,
20,
-92,
-21,
-108,
-73,
22,
-120,
-50,
79,
-7,
-50,
-84,
83,
33,
-84,
-121,
62,
95,
14,
-31,
-56,
122,
-56,
-61,
-15,
61,
-96,
42,
35,
-54,
109,
-72,
109,
-40,
-53,
-92,
-19,
82,
112,
-67,
-53,
-65,
103,
29,
-33,
18,
35,
29,
113,
-79,
125,
-71,
43,
-59,
-5,
27,
2,
-102,
-59,
-91,
99,
-77,
91,
80,
-118,
38,
-13,
118,
-8,
99,
50,
66,
-94,
-103,
-33,
127,
42,
-126,
28,
-101,
49,
-102,
83,
91,
93,
77,
-10,
-33,
103,
-69,
-124,
-54,
108,
94,
25,
-11,
-124,
-116,
-21,
-5,
110,
-99,
60,
15,
-75,
-101,
-113,
-33,
27,
-86,
-7,
76,
-61,
75,
-89,
-95,
25,
-99,
126,
127,
-41,
1,
-55,
-61,
-32,
-31,
55,
-29,
-20,
34,
-34,
90,
62,
-102,
104,
115,
52,
-10,
-46,
-49,
32,
-54,
26,
-30,
-106,
65,
-126,
46,
93,
-127,
-83,
51,
1,
-11,
117,
-32,
-43,
-84,
-61,
-64,
77,
32,
25,
-116,
-71,
2,
126,
108,
-9,
79,
59,
22,
24,
-43,
120,
45,
-106,
121,
90,
-14,
-7,
-121,
-91,
-6,
122,
25,
89,
-49,
-59,
27,
15,
17,
58,
-88,
28,
115,
-87,
-102,
-33,
32,
104,
-102,
-74,
1,
-17,
45,
45,
-124,
39,
8,
-10,
31,
14,
26,
-103,
-119,
51,
-14,
-41,
119,
12,
101,
8,
-57,
13,
-91,
57,
53,
61,
-104,
84,
38,
-78,
-117,
38,
32,
55,
82,
35,
93,
89,
24,
124,
-24,
-77,
-107,
111,
101,
-122,
-58,
92,
18,
43,
99,
88,
55,
-120,
-111,
-20,
-59,
-88,
64,
106,
-39,
-54,
-112,
-8,
0,
-31,
-100,
-34,
-69,
51,
89,
-94,
-27,
109,
-111,
73,
-13,
85,
-91,
-123,
0,
-119,
-36,
-73,
15,
-20,
-93,
83,
-109,
-30,
-67,
-20,
43,
75,
-29,
-85,
44,
-2,
-120,
102,
49,
96,
7,
21,
-50,
23,
94,
64,
-20,
-125,
-60,
-20,
10,
-97,
-94,
25,
-118,
67,
107,
-100,
-91,
-87,
-121,
79,
-13,
-22,
122,
-97,
-25,
1,
4,
23,
-30,
-117,
-83,
-81,
-95,
-117,
110,
13,
12,
49,
-8,
-105,
-49,
25,
-81,
-40,
-35,
-102,
114,
-127,
65,
121,
80,
-75,
98,
-54,
82,
-55,
74,
86,
96,
-84,
96,
12,
-38,
-126,
-106,
71,
-114,
33,
119,
5,
-73,
-58,
29,
-27,
-99,
-7,
-1,
-112,
-6,
-64,
8,
73,
115,
-22,
-109,
70,
50,
92,
28,
-110,
8,
123,
29,
97,
-4,
50,
-87,
9,
83,
31,
13,
-118,
101,
42,
-17,
-126,
-93,
-19,
16,
-100,
44,
-104,
100,
32,
1,
118,
101,
51,
83,
-127,
68,
-37,
123,
97,
59,
119,
19,
-29,
0,
101,
-125,
13,
111,
103,
-73,
93,
-24,
88,
-54,
-8,
116,
-11,
15,
88,
20,
-111,
-49,
-7,
67,
-94,
120,
-121,
123,
-12,
103,
-74,
-21,
122,
25,
106,
95,
27,
118,
-50,
-126,
-83,
-85,
104,
-122,
-12,
-32,
-7,
-23,
-17,
80,
124,
-1,
-97,
-10,
65,
63,
-18,
-57,
-70,
-31,
-81,
-16,
75,
40,
-119,
-74,
7,
-93,
-84,
85,
35,
88,
127,
11,
-35,
115,
-21,
85,
-36,
89,
37,
-40,
87,
-60,
-51,
-104,
2,
-69,
-34,
60,
27,
-116,
-84,
-25,
51,
51,
-100,
-69,
-43,
-57,
15,
119,
30,
-114,
-126,
122,
0,
-20,
79,
91,
68,
116,
51,
27,
55,
-1,
50,
-71,
-71,
-111,
116,
84,
27,
31,
58,
-49,
81,
85,
9,
-90,
27,
23,
28,
-70,
36,
30,
-76,
-91,
9,
3,
-1,
-50,
118,
49,
104,
45,
-79,
-101,
-27,
104,
42,
89,
60,
-59,
-8,
117,
19,
73,
-54,
27,
-18,
101,
-78,
-117,
30,
-42,
40,
-47,
-6,
-79,
83,
-8,
125,
-55,
-86,
-26,
-11,
89,
0,
90,
65,
41,
51,
125,
109,
42,
114,
-127,
114,
60,
-101,
-31,
33,
76,
-21,
62,
-94,
18,
-113,
-101,
-62,
98,
18,
-64,
-85,
-69,
37,
-96,
-108,
36,
121,
-43,
-51,
-84,
81,
57,
-43,
-61,
-71,
-56,
126,
-44,
-88,
-97,
-96,
18,
92,
64,
-92,
107,
90,
-27,
-51,
-20,
-92,
118,
39,
-56,
-106,
-70,
107,
14,
-114,
55,
57,
94,
112,
14,
33,
-87,
-43,
31,
123,
-4,
62,
26,
-114,
-102,
-38,
48,
-123,
-76,
20,
-47,
-96,
-72,
71,
-58,
-1,
92,
-1,
106,
-21,
-115,
33,
35,
-22,
-111,
-79,
-117,
57,
-123,
42,
52,
0,
103,
78,
-115,
-127,
-88,
-68,
5,
91,
-48,
-43,
-6,
7,
-100,
63,
-122,
-8,
61,
111,
-30,
73,
-111,
-123,
-76,
-95,
53,
-66,
89,
57,
-25,
-114,
-70,
77,
91,
69,
-50,
2,
-126,
82,
92,
-47,
38,
-42,
-41,
-62,
20,
-36,
57,
-46,
75,
-101,
-101,
-37,
30,
77,
-5,
-45,
11,
84,
12,
-15,
97,
-59,
-65,
-68,
-118,
12,
-67,
10,
93,
-102,
-38,
3,
110,
48,
-60,
3,
12,
124,
84,
86,
22,
-18,
-79,
-75,
59,
-85,
-121,
-58,
126,
18,
54,
-33,
-42,
-12,
-102,
-32,
127,
-41,
-23,
92,
111,
67,
95,
93,
-13,
-93,
95,
-2,
31,
51,
-44,
-75,
33,
4,
104,
91,
-81,
-17,
32,
44,
0,
85,
-116,
86,
-54,
36,
53,
-55,
122,
-98,
37,
105,
-32,
-124,
-57,
-45,
-90,
-90,
80,
68,
-39,
-91,
-7,
-7,
-88,
96,
-44,
-42,
78,
115,
2,
-49,
-56,
-115,
36,
17,
48,
-39,
-38,
-85,
117,
126,
-108,
85,
-126,
89,
-88,
38,
127,
-9,
106,
87,
-101,
98,
-48,
-61,
-62,
-93,
-104,
-111,
21,
25,
-33,
92,
37,
2,
-18,
85,
90,
-57,
127,
-49,
-59,
18,
-92,
69,
-20,
74,
106,
106,
-62,
-44,
65,
-36,
-74,
16,
-98,
-8,
50,
53,
8,
-57,
77,
-26,
34,
114,
103,
15,
71,
-63,
85,
70,
-113,
25,
-40,
50,
-34,
67,
-4,
72,
-83,
-67,
-100,
109,
-103,
-46,
124,
-74,
-55,
46,
-22,
-48,
-12,
-72,
-75,
22,
-86,
27,
-91,
112,
-37,
122,
-74,
-23,
19,
13,
26,
-15,
80,
22,
-71,
124,
82,
83,
-22,
-22,
36,
-26,
-96,
108,
20,
9,
59,
7,
64,
111,
-99,
-23,
10,
-62,
88,
100,
59,
-114,
77,
-50,
27,
-25,
-66,
106,
124,
117,
-26,
-49,
73,
79,
56,
-19,
53,
87,
89,
72,
-31,
20,
-49,
32,
-124,
107,
9,
13,
-83,
-31,
113,
-25,
-17,
62,
52,
9,
36,
-14,
-13,
33,
-25,
-40,
111,
47,
-88,
39,
28,
-36,
126,
-11,
-92,
-33,
8,
113,
-2,
11,
92,
-121,
-103,
8,
-24,
9,
110,
-42,
-57,
-93,
-34,
106,
20,
-48,
-117,
-6,
39,
121,
41,
-50,
-95,
-59,
41,
-97,
57,
-52,
124,
64,
-66,
-6,
-52,
-102,
-127,
99,
34,
103,
-20,
-112,
60,
-78,
-78,
-102,
27,
69,
-23,
-90,
63,
-112,
-97,
-24,
-34,
62,
44,
6,
-36,
100,
82,
-40,
36,
-112,
-46,
-17,
40,
-46,
-46,
73,
56,
-67,
89,
-12,
109,
10,
13,
-119,
-48,
117,
-82,
14,
4,
75,
117,
97,
10,
-95,
-24,
101,
-123,
57,
61,
-88,
-56,
-113,
-105,
-17,
95,
-24,
-71,
23,
-91,
17,
-117,
-110,
-101,
23,
-102,
105,
-116,
-57,
-9,
15,
18,
107,
112,
-100,
-116,
87,
0,
15,
16,
60,
55,
87,
74,
77,
-58,
-87,
52,
125,
63,
-40,
-114,
73,
-22,
-87,
95,
-125,
17,
106,
73,
-119,
121,
-37,
-13,
105,
117,
-1,
64,
116,
-114,
79,
49,
-60,
-90,
-5,
16,
-21,
-92,
68,
104,
98,
-100,
117,
-84,
5,
29,
-117,
-120,
-81,
-11,
80,
54,
-18,
42,
-87,
86,
31,
-89,
-106,
19,
52,
100,
67,
119,
-118,
62,
8,
115,
97,
-52,
-37,
67,
-25,
-47,
110,
-20,
109,
-7,
114,
27,
109,
66,
-47,
90,
107,
121,
-80,
-118,
-96,
-59,
28,
83,
40,
-32,
-53,
49,
29,
-46,
-92,
-2,
-99,
-1,
-63,
-125,
-49,
47,
-18,
59,
39,
95,
-41,
-108,
33,
-89,
109,
-116,
-96,
-99,
-107,
63,
96,
-79,
-110,
8,
-112,
-36,
56,
44,
45,
-37,
-86,
73,
89,
-22,
76,
39,
24,
57,
-29,
-65,
25,
57,
-46,
57,
95,
62,
69,
-1,
-38,
89,
-66,
-70,
-118,
-49,
65,
-103,
-85,
120,
68,
87,
-44,
-19,
-95,
44,
-41,
-20,
-44,
110,
36,
54,
45,
-67,
110,
126,
-10,
-51,
-67,
58,
75,
22,
-109,
8,
-48,
28,
-41,
16,
-76,
1,
9,
-8,
87,
92,
100,
-9,
8,
-69,
98,
91,
41,
7,
-111,
-42,
-61,
126,
83,
-72,
-52,
-112,
113,
22,
-90,
-123,
30,
-11,
-96,
116,
-123,
-45,
116,
-115,
74,
-53,
104,
-81,
66,
112,
-23,
36,
75,
-110,
42,
-36,
-25,
-19,
-38,
58,
36,
-91,
73,
-106,
-69,
110,
25,
88,
98,
56,
-52,
-25,
-117,
-64,
-13,
-43,
-118,
-36,
3,
75,
75,
-21,
111,
22,
124,
-103,
-15,
98,
5,
75,
28,
-86,
-17,
-26,
-65,
41,
83,
87,
-127,
-74,
-113,
-52,
28,
24,
-117,
-113,
108,
-107,
105,
110,
-33,
52,
89,
-50,
74,
85,
-25,
-69,
55,
-21,
5,
83,
20,
-12,
-71,
-46,
28,
11,
40,
29,
64,
54,
-24,
-36,
-49,
-13,
106,
58,
-121,
-45,
41,
100,
-120,
-126,
50,
-47,
86,
24,
-117,
-115,
-125,
16,
95,
-105,
3,
23,
-24,
-97,
-93,
-111,
59,
-30,
-58,
35,
-66,
20,
-106,
-88,
78,
27,
-6,
118,
-1,
-127,
119,
48,
80,
77,
-56,
91,
-39,
-53,
106,
-71,
-31,
-19,
-49,
72,
-117,
-15,
-40,
70,
-45,
-98,
-23,
16,
-79,
125,
-73,
126,
-104,
-80,
116,
-106,
48,
107,
70,
0,
-72,
-114,
90,
17,
-40,
68,
-55,
-72,
48,
23,
0,
59,
8,
-41,
-127,
-38,
-12,
104,
105,
-91,
101,
31,
-93,
-4,
78,
23,
17,
125,
-126,
86,
-2,
-70,
-28,
87,
-54,
59,
28,
-110,
-13,
75,
-88,
114,
6,
47,
-55,
6,
-119,
-67,
-18,
-15,
-31,
82,
-112,
-125,
77,
-34,
25,
94,
-37,
27,
52,
-40,
-44,
-104,
-80,
-99,
-45,
-53,
-82,
-59,
-106,
-43,
-73,
28,
4,
126,
33,
-116,
-69,
15,
-3,
-101,
96,
-116,
-98,
46,
-23,
54,
-116,
-60,
80,
-65,
27,
35,
86,
-54,
63,
-87,
20,
-20,
108,
42,
-63,
-93,
69,
68,
32,
101,
-49,
91,
-12,
75,
117,
84,
-41,
18,
-126,
63,
-55,
-115,
2,
24,
-53,
29,
-68,
-95,
102,
-6,
72,
122,
102,
52,
-92,
-89,
-42,
104,
-22,
118,
-51,
56,
81,
-63,
-124,
-58,
-107,
-38,
88,
-106,
24,
32,
33,
26,
55,
107,
-73,
114,
12,
28,
108,
-44,
22,
-46,
-119,
57,
119,
93,
-95,
-31,
83,
-18,
24,
-92,
-82,
-101,
105,
-62,
-12,
65,
86,
12,
96,
-9,
-90,
23,
97,
-36,
-118,
-19,
119,
-11,
-63,
14,
70,
-55,
70,
61,
37,
-25,
29,
-7,
-44,
-75,
28,
1,
-48,
5,
-62,
-61,
69,
-104,
78,
-91,
-114,
115,
-68,
-18,
78,
-59,
-37,
-58,
-71,
27,
-45,
126,
-29,
-103,
59,
-120,
-1,
-40,
0,
82,
-116,
28,
82,
-37,
32,
-108,
-98,
-26,
42,
107,
10,
-73,
-33,
-59,
37,
44,
9,
127,
113,
65,
26,
-60,
-65,
124,
92,
121,
-124,
90,
80,
-124,
-83,
92,
31,
126,
54,
-65,
-109,
83,
-92,
-68,
-65,
-82,
-13,
-99,
-14,
-104,
-56,
-5,
22,
-70,
59,
47,
124,
122,
-85,
-40,
-13,
-82,
-77,
-60,
48,
-33,
31,
-49,
92,
84,
-114,
-18,
-88,
-79,
42,
-26,
-34,
-99,
-126,
-48,
51,
-55,
74,
72,
-126,
5,
-9,
-2,
126,
33,
85,
-14,
-50,
-120,
-75,
126,
101,
-45,
76,
-62,
-89,
89,
47,
-50,
10,
-39,
-77,
-25,
116,
51,
54,
39,
124,
127,
110,
-3,
5,
-27,
122,
-125,
5,
80,
-12,
83,
-41,
-88,
-47,
60,
-6,
-99,
125,
-95,
118,
44,
-18,
127,
5,
-95,
-26,
120,
83,
28,
-96,
-49,
27,
-114,
76,
31,
-13,
70,
34,
-9,
-106,
21,
-54,
-19,
61,
26,
-87,
54,
55,
37,
86,
-83,
80,
68,
43,
84,
100,
-111,
77,
55,
44,
108,
-121,
-56,
121,
-46,
102,
107,
23,
-120,
-29,
45,
29,
44,
25,
89,
70,
-63,
15,
124,
101,
101,
40,
53,
41,
-45,
10,
-115,
98,
86,
-61,
-113,
66,
72,
85,
59,
-102,
-69,
39,
49,
-61,
-118,
-34,
95,
-75,
118,
-72,
-6,
-73,
70,
117,
27,
-85,
29,
79,
-45,
-17,
88,
-33,
-46,
46,
34,
95,
-16,
-22,
52,
-84,
-124,
110,
-46,
52,
-79,
90,
17,
15,
14,
-121,
70,
8,
60,
-115,
-3,
-41,
54,
26,
37,
-118,
-119,
-2,
103,
89,
-84,
-119,
56,
-100,
114,
107,
70,
117,
90,
-104,
-87,
10,
-15,
57,
-102,
126,
-65,
-33,
6,
122,
106,
-124,
80,
33,
29,
-11,
-86,
-91,
114,
-111,
-2,
30,
-102,
-74,
57,
-116,
-94,
-1,
-127,
-5,
-106,
40,
-123,
6,
-31,
29,
-124,
31,
-4,
-118,
-103,
-26,
-115,
104,
6,
-87,
-35,
47,
76,
79,
64,
-54,
-19,
-39,
127,
37,
99,
-95,
35,
99,
-101,
56,
11,
30,
61,
-21,
-68,
64,
9,
-73,
73,
33,
-100,
-43,
-119,
34,
124,
-27,
80,
73,
-76,
-112,
-109,
-96,
-24,
-110,
68,
-53,
49,
-25,
45,
-53,
30,
55,
105,
-37,
33,
36,
27,
-86,
90,
-28,
-54,
117,
-71,
-46,
-105,
-75,
-73,
103,
-3,
105,
118,
16,
-118,
94,
-95,
-51,
-87,
-46,
-76,
-42,
28,
81,
12,
-123,
44,
-82,
40,
-57,
86,
2,
-86,
32,
-8,
-30,
113,
14,
23,
39,
116,
-108,
17,
107,
-93,
-102,
73,
67,
101,
-15,
20,
-103,
-58,
47,
-22,
82,
52,
21,
-1,
-36,
91,
-43,
94,
-123,
-12,
85,
102,
101,
98,
124,
12,
87,
15,
28,
-62,
-78,
-75,
10,
116,
-101,
-6,
-120,
50,
64,
54,
-100,
-110,
-22,
48,
-112,
70,
-117,
-28,
-92,
15,
-40,
120,
-11,
-67,
-38,
-15,
72,
-79,
127,
100,
113,
-79,
-103,
-5,
36,
-77,
117,
43,
101,
-75,
-30,
0,
-58,
-53,
48,
-43,
16,
58,
-72,
51,
72,
-113,
-85,
-67,
-53,
5,
-83,
19,
53,
44,
-9,
39,
-36,
15,
33,
-127,
-62,
22,
-85,
38,
74,
-116,
-90,
15,
-41,
-43,
-29,
102,
-112,
-101,
-102,
87,
-87,
-60,
20,
-12,
72,
64,
6,
125,
-20,
124,
-92,
-56,
11,
68,
-56,
-52,
90,
113,
113,
-92,
-3,
23,
-77,
83,
107,
21,
-71,
122,
-81,
-46,
-46,
87,
-106,
-27,
74,
93,
36,
-48,
-38,
-111,
-52,
-3,
87,
-42,
-62,
30,
34,
27,
15,
-109,
62,
-116,
41,
112,
-34,
21,
-122,
-105,
-113,
51,
103,
95,
10,
124,
-60,
-44,
90,
104,
-93,
-76,
-8,
-18,
-79,
-49,
-60,
113,
108,
-27,
12,
122,
-9,
73,
-121,
-95,
-70,
99,
53,
-65,
121,
67,
-15,
97,
35,
123,
93,
102,
78,
-73,
-50,
113,
106,
69,
94,
-101,
19,
33,
-116,
-1,
-122,
-105,
-6,
-3,
95,
127,
29,
-103,
98,
-46,
86,
-36,
20,
-56,
60,
-73,
66,
25,
29,
-112,
-48,
-22,
0,
-70,
-80,
-33,
83,
66,
-1,
-34,
65,
5,
-12,
58,
-126,
-45,
-71,
30,
107,
26,
-17,
65,
117,
2,
-119,
49,
57,
-54,
74,
85,
-38,
25,
-65,
89,
-46,
109,
55,
-91,
-80,
-73,
2,
-16,
59,
-11,
-86,
-68,
-57,
97,
-39,
-78,
-5,
-57,
-13,
112,
72,
122,
33,
-127,
-59,
106,
85,
-98,
3,
20,
118,
-44,
-127,
-82,
-8,
-80,
99,
-7,
-97,
30,
-19,
-56,
-39,
52,
-87,
49,
-27,
-92,
119,
87,
-108,
63,
-46,
-76,
64,
22,
-97,
-107,
51,
-95,
-88,
-87,
-11,
40,
85,
-20,
87,
56,
-27,
118,
85,
81,
61,
-82,
-123,
-26,
-34,
-22,
9,
-43,
64,
28,
20,
-110,
79,
83,
-89,
-19,
-25,
-39,
-114,
-113,
2,
2,
54,
86,
-19,
-115,
15,
81,
-125,
99,
35,
-64,
17,
39,
-91,
110,
16,
45,
67,
-47,
72,
86,
97,
-105,
41,
-119,
4,
15,
-31,
17,
29,
-30,
18,
-45,
-71,
126,
-32,
-57,
-48,
97,
41,
114,
32,
-70,
-103,
68,
-87,
-87,
112,
-21,
120,
56,
-63,
89,
79,
-23,
97,
82,
-9,
66,
-29,
-107,
35,
-12,
102,
91,
-14,
69,
33,
-63,
39,
-53,
-77,
70,
4,
75,
11,
-84,
-13,
122,
22,
-21,
51,
-42,
67,
-126,
62,
37,
83,
-74,
102,
53,
73,
9,
40,
47,
100,
25,
116,
5,
90,
-101,
-49,
12,
96,
-45,
-41,
106,
-2,
-55,
101,
20,
51,
-104,
105,
-9,
-103,
-88,
27,
-21,
92,
-127,
31,
-91,
9,
-57,
-45,
-19,
95,
-57,
-14,
57,
-31,
-64,
-58,
-62,
18,
-100,
43,
16,
100,
16,
-92,
23,
-89,
12,
13,
62,
-77,
39,
40,
14,
39,
-57,
50,
-79,
-115,
-122,
-99,
-20,
75,
-114,
36,
-83,
-50,
-23,
109,
-33,
5,
24,
110,
-23,
40,
17,
-1,
78,
-98,
12,
13,
79,
-77,
-75,
-34,
90,
123,
-112,
10,
-120,
20,
-90,
114,
-32,
-76,
23,
-116,
-127,
127,
120,
94,
-124,
-112,
77,
107,
55,
93,
-21,
-122,
122,
-10,
18,
-54,
40,
-58,
39,
-126,
64,
-74,
11,
72,
74,
49,
-70,
41,
-28,
80,
52,
99,
80,
-84,
65,
83,
-69,
-114,
-65,
-14,
107,
-87,
-9,
-27,
30,
8,
46,
-58,
-51,
-43,
71,
-114,
-117,
-46,
-43,
84,
2,
14,
124,
-27,
-33,
-80,
-56,
46,
-37,
9,
-127,
-107,
-106,
-65,
6,
-127,
102,
-4,
101,
4,
-124,
-109,
-54,
80,
103,
-111,
93,
113,
-30,
-78,
-59,
-28,
-65,
-63,
72,
-99,
-16,
16,
74,
-54,
24,
-53,
-34,
45,
-119,
100,
-82,
111,
-32,
18,
-13,
99,
36,
-68,
51,
11,
-52,
-112,
-4,
-82,
64,
64,
-111,
126,
0,
88,
-100,
-17,
103,
-27,
56,
126,
-81,
-105,
44,
-72,
-6,
-39,
38,
89,
-22,
-103,
-68,
-114,
84,
110,
25,
-96,
-3,
20,
76,
-67,
84,
92,
-68,
-44,
53,
86,
67,
-100,
58,
-5,
-101,
105,
-111,
-58,
32,
10,
-98,
-58,
99,
7,
93,
-97,
-108,
49,
13,
44,
-47,
-118,
64,
-99,
-57,
20,
121,
-126,
-25,
-82,
87,
-86,
72,
-111,
-91,
98,
-7,
-75,
39,
-103,
63,
68,
93,
34,
74,
-69,
-64,
94,
-21,
76,
-118,
-69,
86,
73,
-40,
28,
92,
80,
29,
-60,
125,
115,
-19,
69,
-124,
17,
-88,
-3,
-58,
78,
-107,
-123,
-109,
114,
-90,
92,
44,
-27,
-70,
22,
-78,
-60,
81,
7,
12,
-87,
34,
-23,
120,
-65,
44,
-11,
-78,
24,
57,
52,
41,
-32,
-79,
110,
46,
-58,
-14,
64,
55,
23,
-100,
98,
123,
85,
-8,
44,
-103,
-55,
50,
-92,
112,
-44,
12,
-24,
-110,
-72,
92,
66,
80,
-106,
-9,
-7,
-11,
39,
102,
34,
-20,
-40,
-30,
-93,
110,
125,
-123,
-23,
-46,
-3,
-106,
-22,
-59,
-57,
-115,
-74,
27,
25,
29,
44,
80,
121,
-17,
-96,
-113,
-27,
-104,
-125,
-116,
125,
37,
119,
-43,
6,
-102,
66,
-125,
30,
-84,
-44,
26,
64,
-67,
94,
-121,
-54,
19,
33,
98,
-79,
77,
-78,
-86,
59,
81,
55,
-96,
104,
-71,
42,
-26,
-35,
-95,
58,
99,
58,
124,
-27,
-40,
-88,
57,
-15,
-25,
-11,
78,
-19,
62,
-30,
14,
-96,
-110,
90,
81,
58,
21,
-94,
112,
-76,
-118,
-87,
-35,
110,
6,
-2,
-87,
104,
55,
-91,
-51,
-113,
75,
5,
126,
-78,
122,
76,
30,
-72,
45,
43,
87,
62,
5,
40,
119,
25,
73,
103,
76,
-46,
16,
41,
-63,
-106,
38,
-23,
125,
-35,
-115,
73,
106,
87,
-49,
-24,
-119,
72,
-76,
-90,
127,
-31,
81,
86,
30,
-42,
125,
22,
111,
-58,
124,
-69,
-104,
12,
-29,
-40,
-95,
-119,
-64,
-98,
100,
-52,
-25,
-50,
-93,
53,
53,
-85,
124,
-23,
79,
123,
73,
32,
-46,
102,
118,
78,
123,
-27,
-107,
120,
-97,
-84,
-124,
2,
-125,
-91,
-118,
-62,
65,
-18,
-115,
-88,
59,
-81,
-36,
112,
88,
-40,
-39,
39,
83,
33,
71,
-91,
7,
61,
114,
-125,
33,
6,
-6,
-65,
49,
-3,
64,
51,
33,
-54,
-12,
-29,
55,
0,
-118,
113,
-82,
-26,
97,
-122,
-67,
-70,
-83,
-112,
-38,
115,
51,
-31,
-80,
38,
-29,
-48,
-84,
92,
14,
-35,
88,
78,
15,
-6,
-104,
-124,
-36,
-50,
3,
-27,
-65,
-79,
-54,
32,
-74,
7,
-39,
97,
-106,
51,
-44,
73,
19,
-125,
110,
117,
-46,
25,
-47,
-32,
-11,
-87,
-82,
-123,
-94,
-59,
-120,
-3,
-110,
-118,
-30,
-48,
-70,
43,
-17,
111,
49,
72,
80,
-57,
122,
36,
15,
13,
38,
124,
2,
-8,
21,
-46,
87,
-117,
121,
-123,
14,
-100,
72,
21,
-104,
89,
30,
120,
40,
-40,
-92,
-104,
-57,
84,
95,
22,
26,
89,
-70,
-87,
-26,
-32,
-91,
-25,
87,
-70,
-72,
46,
67,
48,
-78,
-47,
75,
121,
-27,
-29,
82,
2,
-37,
-6,
89,
-2,
-111,
31,
82,
111,
-74,
107,
-56,
110,
-107,
-83,
-50,
56,
19,
36,
-15,
-54,
81,
-76,
122,
-125,
-124,
-59,
123,
103,
39,
-51,
-22,
2,
-57,
66,
-1,
-41,
-30,
80,
70,
23,
60,
-114,
-123,
-48,
-69,
82,
7,
-51,
-10,
120,
23,
-56,
43,
-111,
73,
47,
-43,
69,
-106,
-4,
17,
-1,
-3,
87,
-62,
123,
46,
-93,
-52,
-12,
-71,
7,
1,
-67,
86,
-69,
-113,
-35,
8,
5,
-43,
30,
-52,
0,
46,
-107,
46,
2,
-39,
67,
125,
106,
66,
121,
-63,
-124,
-11,
110,
37,
64,
-30,
93,
-57,
-29,
-102,
28,
29,
40,
120,
36,
44,
77,
65,
119,
76,
110,
11,
-6,
112,
100,
-67,
-19,
-50,
126,
-25,
14,
1,
91,
-3,
-90,
27,
-34,
2,
-31,
64,
28,
124,
93,
67,
-12,
-127,
-17,
64,
66,
-26,
12,
-80,
112,
-122,
-96,
-44,
66,
13,
33,
-64,
115,
47,
65,
-50,
-84,
-26,
-24,
-119,
104,
72,
73,
-124,
-60,
-90,
70,
-73,
-90,
-75,
119,
-25,
-102,
-125,
-105,
9,
8,
-74,
-35,
-54,
-62,
125,
9,
52,
44,
73,
-126,
-41,
47,
-23,
-32,
-105,
48,
40,
-102,
-13,
77,
-33,
42,
-14,
-109,
-95,
89,
-84,
-93,
111,
-76,
42,
36,
16,
115,
102,
-114,
124,
-102,
-71,
-59,
-100,
16,
115,
-124,
-17,
-118,
-76,
-105,
34,
38,
-29,
0,
-48,
84,
18,
-16,
-83,
-67,
-109,
27,
112,
60,
-64,
0,
-80,
37,
-115,
43,
62,
-58,
111,
89,
-43,
-29,
-35,
67,
107,
16,
-39,
14,
-74,
-69,
13,
-122,
14,
-96,
116,
59,
91,
-121,
-42,
-53,
-61,
21,
75,
-14,
57,
-41,
28,
-8,
28,
11,
-47,
112,
109,
45,
51,
89,
-67,
11,
102,
114,
69,
-13,
119,
-44,
-110,
107,
14,
-19,
-14,
99,
55,
52,
120,
-126,
37,
49,
-39,
-63,
-87,
-12,
75,
121,
-27,
-71,
-90,
23,
17,
98,
-93,
118,
84,
-25,
-23,
-53,
58,
122,
-74,
-56,
102,
39,
43,
-99,
90,
-93,
30,
-1,
83,
118,
63,
-4,
105,
11,
-11,
-50,
-61,
-102,
101,
83,
123,
7,
73,
79,
109,
49,
25,
-88,
-85,
79,
110,
16,
117,
25,
45,
-48,
59,
-53,
78,
-113,
64,
14,
10,
-87,
24,
-2,
-9,
-38,
23,
91,
-83,
-109,
97,
-11,
-31,
78,
37,
122,
-11,
-48,
-55,
-28,
95,
61,
-4,
-116,
-115,
55,
85,
91,
-59,
21,
104,
-50,
62,
127,
75,
52,
-39,
97,
-113,
-123,
-13,
111,
120,
84,
-67,
29,
78,
50,
108,
-105,
21,
-52,
83,
-111,
-41,
-32,
-57,
-83,
-69,
11,
-63,
34,
88,
-2,
33,
-93,
-78,
-7,
4,
63,
124,
118,
46,
116,
74,
107,
-111,
-104,
-99,
-3,
-82,
49,
72,
1,
-63,
30,
96,
-120,
74,
26,
18,
-116,
-68,
106,
-119,
-36,
12,
58,
-44,
-112,
-7,
-48,
-121,
-88,
67,
-48,
18,
-45,
-24,
46,
-49,
-107,
94,
-105,
-107,
30,
-75,
116,
37,
126,
-114,
55,
9,
-55,
-95,
18,
-92,
44,
75,
-9,
60,
-60,
-58,
-62,
106,
8,
-111,
-4,
91,
119,
41,
-86,
-115,
-121,
64,
32,
37,
116,
21,
73,
-14,
34,
0,
-5,
-21,
-96,
12,
-114,
76,
-41,
-123,
-120,
26,
-54,
72,
5,
82,
88,
0,
-83,
80,
-86,
-42,
-36,
-80,
21,
123,
-44,
-119,
-112,
-98,
-5,
-78,
-99,
-11,
-100,
-67,
-127,
-87,
-119,
-41,
-83,
15,
-16,
118,
-41,
-12,
72,
-81,
-12,
116,
-2,
29,
73,
-39,
-52,
-33,
-43,
-96,
-25,
99,
-67,
-31,
20,
88,
85,
47,
-107,
-43,
-40,
28,
-85,
4,
-85,
27,
121,
-127,
14,
65,
47,
-126,
-75,
-83,
-98,
-2,
-122,
105,
-36,
-38,
-119,
-62,
60,
-59,
35,
-47,
-99,
119,
127,
49,
-51,
-41,
76,
-9,
-37,
-9,
17,
-44,
-9,
-96,
21,
-90,
32,
-55,
82,
62,
70,
87,
39,
33,
48,
47,
99,
-20,
-13,
-122,
-68,
-113,
124,
59,
63,
72,
17,
-116,
-64,
107,
2,
-48,
63,
120,
-17,
83,
30,
15,
-100,
-16,
-51,
-30,
-57,
-13,
-125,
-10,
33,
-27,
97,
-108,
-22,
29,
33,
102,
-40,
-31,
46,
104,
-20,
-19,
-44,
-19,
61,
-109,
-27,
43,
101,
-125,
-70,
0,
113,
-122,
97,
-72,
119,
-28,
45,
24,
72,
-113,
-85,
50,
43,
76,
24,
2,
44,
69,
-22,
23,
50,
61,
-124,
110,
-49,
103,
25,
-76,
106,
-45,
52,
-37,
87,
-107,
-109,
-49,
-8,
-65,
102,
64,
-51,
17,
-14,
-9,
92,
9,
120,
8,
-50,
98,
30,
127,
-97,
33,
-19,
-18,
8,
-121,
-95,
113,
88,
-44,
-51,
-81,
-23,
-33,
-3,
-32,
-99,
99,
-96,
-22,
-12,
17,
-32,
-48,
-102,
88,
-41,
103,
-70,
116,
-26,
-40,
21,
83,
69,
28,
-39,
102,
-114,
48,
-70,
-38,
94,
-94,
-72,
-36,
2,
83,
-65,
-95,
-67,
-78,
50,
-99,
-127,
-53,
-12,
-41,
49,
45,
-53,
-104,
-123,
-33,
-22,
-54,
122,
-62,
-80,
-120,
113,
104,
96,
79,
-117,
23,
42,
-116,
-21,
-24,
-84,
-89,
-103,
-35,
66,
-103,
-88,
-74,
-17,
88,
-30,
57,
-17,
102,
-104,
88,
-80,
18,
25,
-33,
-103,
10,
70,
121,
89,
-48,
-112,
3,
-37,
121,
-21,
-121,
-95,
3,
-29,
-30,
28,
10,
-104,
10,
98,
-7,
67,
-47,
-33,
-38,
41,
14,
107,
-62,
-20,
-123,
-52,
50,
-3,
-91,
-126,
-116,
-89,
92,
-122,
17,
98,
37,
20,
68,
-121,
47,
78,
-98,
-71,
48,
-105,
123,
0,
116,
-42,
-87,
3,
64,
106,
-18,
68,
-74,
31,
64,
-38,
33,
-52,
0,
-3,
-47,
17,
94,
-11,
-91,
34,
122,
-45,
-16,
24,
11,
31,
46,
-121,
-96,
34,
-36,
-56,
36,
27,
49,
18,
-32,
-26,
-79,
31,
63,
-47,
106,
63,
-51,
58,
79,
-85,
-81,
-13,
-51,
-86,
69,
-68,
65,
-48,
91,
110,
85,
122,
-112,
-79,
65,
52,
76,
114,
-58,
43,
-40,
117,
73,
23,
-57,
-76,
-42,
19,
-19,
36,
-66,
28,
-105,
10,
-59,
-37,
69,
5,
42,
32,
114,
127,
-102,
-126,
47,
-37,
53,
122,
-51,
-6,
37,
36,
111,
110,
-69,
-74,
33,
-112,
-56,
-114,
51,
5,
41,
-55,
-113,
-19,
35,
-44,
-15,
77,
115,
-29,
76,
13,
-27,
-5,
103,
25,
-10,
-76,
19,
26,
87,
2,
8,
-109,
-73,
40,
-94,
-2,
54,
-43,
-124,
94,
29,
17,
-52,
-63,
100,
60,
-114,
-40,
31,
89,
100,
-124,
83,
-53,
28,
-55,
-2,
46,
99,
84,
-80,
106,
-26,
-26,
19,
-120,
-28,
-55,
-36,
-25,
-89,
-8,
119,
113,
56,
-36,
46,
-59,
51,
-51,
29,
-105,
79,
-15,
-31,
106,
57,
-34,
25,
28,
-78,
72,
-121,
24,
46,
25,
-97,
-110,
-31,
121,
119,
7,
-15,
-18,
-7,
-86,
73,
38,
109,
-4,
-14,
11,
18,
64,
123,
-14,
42,
52,
79,
-61,
80,
1,
11,
86,
24,
-71,
110,
54,
73,
-49,
47,
64,
-43,
-96,
-82,
-51,
72,
119,
-14,
54,
114,
-29,
64,
-123,
-93,
59,
117,
77,
110,
69,
15,
62,
-58,
-102,
-108,
93,
81,
1,
-109,
26,
79,
65,
89,
36,
-32,
-120,
-16,
-87,
-2,
98,
-34,
111,
68,
-98,
-13,
103,
-40,
-23,
-76,
-58,
-82,
66,
4,
114,
-36,
23,
79,
-83,
-103,
97,
-57,
-25,
-94,
-96,
10,
1,
38,
122,
-87,
35,
-36,
6,
-109,
-96,
-93,
5,
-121,
-6,
109,
57,
-64,
26,
-4,
67,
12,
-41,
-38,
90,
-125,
113,
-69,
-55,
88,
-36,
104,
-30,
-35,
-114,
91,
5,
-79,
-73,
11,
-61,
-41,
45,
71,
92,
39,
-75,
22,
102,
78,
17,
41,
-37,
103,
2,
52,
-23,
-12,
111,
-78,
75,
74,
25,
-83,
-89,
38,
-119,
-84,
86,
62,
54,
24,
20,
98,
95,
-15,
9,
-108,
6,
-17,
97,
-105,
-104,
59,
-3,
26,
-16,
-27,
13,
94,
22,
-40,
-88,
-81,
-124,
78,
-43,
11,
121,
-85,
-54,
-81,
-61,
93,
-111,
-94,
77,
26,
-75,
-45,
-119,
21,
104,
32,
80,
-27,
-70,
63,
74,
-58,
29,
95,
29,
-60,
-113,
32,
-110,
-29,
-84,
10,
-115,
-11,
-72,
-49,
81,
-55,
111,
31,
-30,
35,
113,
-22,
-71,
90,
9,
-119,
62,
-62,
71,
-120,
7,
99,
103,
-92,
38,
-11,
-60,
56,
87,
-17,
65,
-29,
-29,
121,
-78,
51,
65,
-95,
-46,
-93,
68,
67,
12,
-4,
-99,
21,
-124,
90,
86,
-54,
-30,
-34,
-83,
72,
-127,
82,
-67,
-60,
-118,
19,
-78,
-53,
-11,
20,
67,
38,
-56,
4,
-57,
-103,
38,
10,
91,
49,
-122,
119,
-58,
-119,
-46,
-99,
81,
51,
121,
125,
122,
121,
-49,
-73,
-66,
88,
-55,
-17,
34,
-67,
3,
-27,
99,
-54,
104,
41,
-30,
14,
-77,
-66,
-65,
55,
52,
5,
-65,
-122,
-95,
-112,
56,
-102,
12,
-78,
-109,
-38,
103,
79,
-78,
-80,
-65,
-45,
108,
-63,
55,
-49,
10,
31,
119,
107,
-83,
41,
40,
107,
-32,
-35,
-16,
-98,
-30,
-112,
44,
26,
-87,
-72,
75,
58,
17,
-77,
10,
-61,
-30,
-56,
-107,
-50,
8,
76,
28,
17,
-21,
-109,
-4,
-104,
59,
36,
-125,
26,
0,
113,
-73,
-31,
-127,
98,
122,
40,
25,
-58,
-30,
42,
-8,
107,
-20,
-39,
50,
0,
-89,
-70,
-52,
-62,
74,
-73,
84,
70,
-50,
-113,
105,
79,
-87,
-23,
-64,
-33,
73,
-64,
65,
-60,
-25,
-38,
-119,
72,
-124,
127,
-76,
110,
87,
101,
-17,
-3,
31,
-70,
-65,
104,
-16,
-109,
-82,
-67,
-95,
-105,
11,
-55,
126,
74,
-88,
72,
9,
104,
11,
111,
-62,
19,
56,
69,
-110,
-21,
51,
104,
-48,
33,
101,
-18,
91,
-92,
-41,
74,
-74,
4,
7,
85,
-101,
-110,
30,
-103,
92,
69,
96,
100,
45,
106,
84,
-18,
124,
-116,
50,
-114,
117,
101,
-10,
68,
6,
-37,
-77,
96,
-2,
9,
43,
-77,
12,
-78,
-120,
38,
66,
-91,
63,
-98,
105,
-97,
-125,
-106,
-118,
-42,
-124,
-122,
96,
53,
19,
85,
26,
-119,
25,
32,
-29,
75,
0,
-32,
83,
42,
-110,
-32,
-37,
24,
-122,
-98,
61,
-60,
58,
38,
-29,
60,
-68,
107,
17,
-65,
112,
-15,
-13,
3,
69,
13,
-117,
-33,
-83,
108,
41,
-84,
-52,
-3,
-42,
-35,
-36,
48,
117,
96,
-51,
-78,
-91,
-120,
87,
-121,
-61,
18,
113,
-44,
80,
-31,
68,
-60,
-28,
10,
80,
109,
-24,
-4,
90,
-111,
-89,
37,
-115,
-4,
2,
-24,
44,
118,
72,
-8,
-88,
-20,
126,
-2,
-14,
65,
-111,
98,
-107,
96,
66,
-40,
35,
-90,
-31,
114,
19,
72,
109,
-19,
-39,
-107,
-110,
-27,
-112,
19,
-51,
-69,
9,
20,
-77,
-80,
127,
-79,
46,
-15,
-15,
62,
82,
5,
30,
20,
-35,
65,
-70,
61,
51,
76,
-122,
33,
56,
-34,
-75,
73,
-62,
-60,
92,
-114,
126,
100,
33,
-79,
-107,
-96,
96,
66,
16,
-46,
0,
97,
-42,
29,
-10,
50,
-34,
-81,
111,
17,
122,
116,
-78,
50,
81,
101,
122,
18,
40,
-42,
-96,
38,
-69,
-64,
-42,
78,
-32,
-73,
16,
-17,
-120,
15,
-47,
-35,
-84,
-58,
15,
-118,
-12,
-2,
26,
109,
113,
-53,
-97,
-62,
-80,
-103,
-45,
-41,
-17,
-14,
125,
-87,
50,
-45,
118,
17,
-119,
-122,
127,
-112,
20,
-48,
-19,
-65,
-107,
-5,
-56,
8,
-8,
-31,
-11,
104,
43,
19,
-86,
-38,
-84,
123,
-79,
-102,
-18,
-82,
-62,
31,
127,
55,
-80,
8,
60,
46,
23,
79,
-2,
3,
-114,
18,
125,
85,
26,
116,
-74,
14,
92,
-31,
33,
-122,
-70,
76,
1,
-22,
-27,
110,
-105,
-90,
-115,
22,
92,
59,
-98,
-104,
-23,
52,
102,
102,
55,
-13,
120,
-76,
71,
18,
-87,
125,
31,
-123,
93,
-64,
10,
-105,
-116,
-117,
-127,
111,
-8,
-105,
-107,
4,
44,
112,
-65,
73,
-120,
-89,
125,
-19,
13,
-76,
-32,
5,
-25,
-89,
22,
15,
35,
-75,
20,
0,
-11,
-98,
-105,
127,
39,
-105,
111,
-97,
-83,
-124,
34,
-39,
-12,
-32,
33,
122,
6,
-98,
103,
18,
-47,
-57,
22,
56,
108,
43,
70,
16,
96,
-38,
-112,
84,
118,
37,
-45,
29,
59,
65,
59,
-24,
-59,
92,
-64,
56,
59,
96,
-78,
65,
126,
-103,
-45,
78,
94,
105,
6,
75,
-108,
76,
90,
115,
-90,
-23,
-57,
28,
-113,
-102,
56,
73,
-38,
115,
48,
30,
-49,
111,
85,
-117,
-48,
-120,
75,
-50,
31,
29,
27,
-2,
6,
33,
72,
26,
-19,
34,
-115,
-110,
10,
83,
45,
24,
-20,
101,
97,
69,
88,
17,
-28,
-89,
-127,
-71,
-79,
-48,
63,
-5,
-99,
-33,
-103,
55,
-36,
-98,
-40,
-92,
-73,
68,
-59,
67,
-42,
78,
22,
-125,
-25,
1,
-25,
71,
-58,
-65,
87,
41,
101,
87,
-30,
21,
38,
32,
-111,
66,
126,
-87,
-6,
89,
69,
-47,
124,
124,
21,
64,
63,
106,
15,
84,
-20,
-11,
-43,
83,
59,
26,
17,
18,
67,
-10,
105,
36,
-116,
15,
-60,
-100,
-46,
66,
67,
-53,
27,
8,
27,
-104,
4,
47,
87,
66,
-103,
101,
22,
5,
89,
-22,
87,
20,
4,
-24,
38,
-57,
94,
15,
-22,
-23,
-98,
45,
-124,
-17,
110,
-58,
-71,
-118,
77,
84,
-95,
81,
-125,
-9,
-109,
-100,
-35,
-87,
32,
53,
18,
118,
-54,
-106,
-34,
-17,
91,
59,
125,
-59,
-92,
-101,
-14,
38,
-118,
95,
107,
-62,
104,
-71,
21,
8,
-118,
-104,
127,
-100,
-77,
91,
-60,
-46,
16,
-42,
-56,
-39,
106,
-91,
71,
70,
96,
-60,
10,
3,
-33,
-5,
-86,
103,
90,
20,
40,
66,
76,
61,
-53,
85,
84,
-54,
-15,
-121,
36,
-76,
87,
51,
-119,
-97,
-115,
115,
-61,
-45,
-71,
34,
23,
66,
-90,
-11,
61,
78,
91,
23,
-30,
3,
88,
-81,
-64,
-93,
3,
19,
107,
-13,
-103,
15,
39,
111,
-61,
47,
13,
78,
-94,
80,
-95,
-38,
113,
-73,
28,
-105,
43,
-39,
-28,
6,
-17,
-58,
9,
-57,
-12,
-56,
105,
-10,
91,
84,
105,
115,
99,
-112,
-29,
37,
-66,
111,
114,
-32,
-65,
18,
-71,
48,
73,
84,
-58,
115,
44,
42,
121,
-101,
111,
2,
-30,
98,
73,
74,
87,
-92,
30,
-64,
23,
-127,
78,
-7,
-91,
-115,
-24,
-105,
107,
-89,
41,
-92,
86,
113,
-8,
-100,
100,
-92,
-59,
93,
-65,
51,
94,
-96,
21,
40,
105,
108,
-53,
-121,
-84,
97,
7,
122,
89,
43,
6,
-62,
-62,
-15,
103,
106,
-108,
-67,
91,
11,
87,
-65,
47,
-99,
-99,
-19,
79,
122,
-116,
100,
-94,
116,
80,
108,
-6,
123,
-51,
-127,
-11,
-89,
-84,
122,
103,
-19,
106,
78,
86,
-2,
10,
49,
8,
-31,
-17,
-73,
-3,
11,
-93,
-51,
-122,
-82,
48,
38,
33,
0,
-110,
-100,
122,
-33,
27,
-16,
-123,
-58,
105,
107,
50,
84,
-71,
8,
81,
66,
56,
-39,
-93,
-88,
-112,
-96,
-78,
-78,
-20,
54,
95,
27,
92,
0,
-101,
109,
-101,
20,
75,
-74,
-124,
79,
-5,
-19,
58,
45,
64,
114,
-75,
17,
-76,
-19,
105,
-41,
-108,
120,
-10,
-59,
42,
-31,
-5,
-119,
123,
-41,
8,
21,
-60,
-93,
-87,
15,
-40,
44,
-34,
82,
24,
-103,
-1,
-40,
10,
-76,
104,
-66,
-96,
-47,
20,
-77,
73,
9,
118,
114,
-23,
-15,
122,
99,
-57,
-126,
119,
-117,
-92,
31,
25,
-5,
-53,
118,
77,
-30,
14,
75,
57,
24,
-2,
-95,
85,
29,
-14,
104,
79,
58,
112,
70,
44,
88,
54,
-90,
59,
125,
-89,
-78,
-120,
-53,
80,
32,
-59,
27,
-106,
17,
124,
36,
-35,
54,
59,
90,
-42,
16,
-8,
-57,
119,
70,
-127,
103,
-116,
-84,
63,
66,
80,
121,
-65,
119,
-85,
-58,
65,
-6,
-27,
-122,
-107,
-6,
23,
-110,
29,
-13,
-57,
-40,
-51,
-100,
-25,
-60,
-29,
-34,
-117,
98,
68,
-106,
-113,
3,
-41,
-34,
123,
21,
-43,
-90,
-38,
-106,
32,
-66,
27,
-76,
-72,
49,
68,
-44,
-92,
10,
-84,
111,
38,
18,
51,
-119,
-16,
-67,
106,
-76,
81,
-8,
-73,
-87,
86,
-78,
-67,
42,
-40,
-105,
64,
-9,
-44,
90,
-86,
-117,
11,
110,
-33,
-82,
-8,
10,
28,
-98,
27,
-49,
-90,
-117,
11,
16,
62,
-35,
-120,
116,
-123,
-35,
-90,
-63,
-120,
124,
86,
-57,
114,
42,
-95,
-99,
52,
-85,
-117,
-109,
87,
2,
-100,
-13,
-96,
55,
-62,
68,
-63,
-52,
-44,
126,
40,
91,
114,
-84,
-72,
24,
108,
-65,
-108,
66,
-123,
-121,
-20,
-91,
-93,
-95,
78,
44,
50,
37,
45,
-50,
24,
76,
4,
-39,
17,
68,
36,
100,
-61,
76,
63,
52,
119,
-9,
-52,
99,
-75,
-32,
38,
-70,
101,
17,
93,
-120,
-79,
44,
-77,
99,
80,
95,
48,
103,
44,
-76,
-64,
-67,
119,
100,
32,
57,
48,
95,
-18,
39,
85,
-71,
-117,
-118,
-104,
48,
66,
124,
64,
32,
3,
113,
75,
53,
-44,
-101,
21,
-124,
-125,
64,
-73,
65,
124,
45,
37,
-100,
-25,
84,
-6,
-44,
123,
-49,
12,
-122,
-39,
-92,
-75,
26,
-96,
116,
-70,
-93,
101,
4,
87,
56,
31,
107,
59,
-95,
43,
-15,
97,
-89,
-97,
-121,
66,
-123,
90,
-68,
87,
-43,
11,
-29,
-38,
-29,
6,
-114,
124,
-90,
2,
-73,
-56,
102,
-70,
30,
31,
88,
10,
-38,
-8,
52,
75,
-38,
91,
-23,
95,
29,
-19,
57,
88,
-60,
14,
98,
-90,
103,
-59,
-84,
-11,
-62,
80,
118,
119,
-104,
92,
48,
-75,
-5,
-119,
62,
-43,
0,
114,
-96,
-39,
77,
-120,
-72,
105,
115,
-15,
-63,
54,
126,
-92,
-37,
-27,
103,
6,
89,
40,
85,
79,
31,
108,
-84,
79,
33,
38,
87,
94,
122,
-41,
80,
25,
48,
29,
32,
-25,
-122,
-109,
87,
-57,
72,
85,
105,
-92,
-69,
80,
-87,
19,
-7,
126,
98,
23,
-22,
-114,
-26,
-117,
51,
60,
105,
-82,
-108,
57,
-58,
-61,
86,
-26,
41,
91,
-8,
1,
33,
-63,
85,
10,
99,
15,
90,
-116,
34,
82,
9,
4,
104,
115,
17,
78,
125,
-60,
10,
-26,
112,
-99,
-96,
-73,
-33,
-11,
28,
8,
-48,
-108,
8,
-15,
83,
-35,
-6,
54,
-20,
83,
-62,
-114,
37,
74,
-111,
-114,
-67,
33,
91,
58,
-28,
100,
-96,
-43,
-126,
62,
-117,
-32,
-77,
38,
103,
-125,
-71,
-17,
-13,
12,
-52,
108,
65,
-73,
64,
-125,
67,
100,
-51,
83,
113,
9,
-12,
-52,
-61,
-41,
-79,
98,
-85,
-78,
32,
-75,
-111,
83,
90,
-8,
85,
19,
-26,
71,
-97,
49,
51,
95,
-25,
114,
-30,
-86,
-41,
-82,
-4,
71,
-74,
-17,
-108,
120,
70,
-60,
90,
112,
116,
-6,
-90,
-123,
76,
-1,
-4,
33,
17,
98,
-24,
-81,
-109,
27,
-113,
121,
-115,
111,
34,
98,
-99,
-97,
42,
-46,
13,
61,
-54,
82,
0,
35,
-61,
-12,
29,
103,
119,
-23,
101,
-12,
10,
-9,
85,
-15,
37,
103,
11,
-77,
96,
-104,
-94,
3,
121,
61,
-95,
35,
15,
-83,
95,
-40,
-1,
-33,
123,
65,
-46,
24,
40,
-54,
0,
13,
61,
-118,
3,
18,
122,
-87,
120,
5,
90,
-39,
28,
-4,
-37,
22,
-71,
-5,
-71,
71,
-89,
24,
31,
37,
118,
26,
101,
-55,
49,
13,
18,
48,
26,
78,
58,
-99,
-32,
52,
68,
87,
56,
-97,
-80,
-43,
26,
-118,
-22,
82,
-124,
-94,
-102,
-85,
57,
56,
-49,
48,
81,
-75,
-8,
-126,
-63,
-118,
49,
-38,
-41,
106,
118,
54,
-98,
-70,
-115,
86,
-40,
-67,
42,
113,
69,
-108,
-60,
73,
-75,
-35,
115,
110,
20,
-62,
-98,
-27,
117,
21,
101,
54,
-98,
22,
-112,
-12,
1,
-122,
41,
30,
-64,
53,
115,
23,
-15,
29,
-119,
-73,
48,
-52,
127,
-27,
40,
-14,
-45,
59,
-77,
111,
-96,
-87,
-124,
4,
94,
-95,
-102,
-19,
-108,
-102,
-13,
60,
-72,
-78,
112,
-85,
-56,
97,
72,
-48,
23,
119,
27,
22,
-36,
66,
7,
-82,
-3,
57,
-99,
-100,
-31,
-96,
31,
62,
63,
-71,
-84,
82,
-46,
-98,
-114,
9,
-49,
-2,
52,
22,
-33,
123,
-26,
117,
114,
-127,
-117,
-49,
-61,
17,
123,
-65,
73,
-103,
-37,
42,
55,
-7,
-24,
-9,
-79,
-109,
72,
3,
-80,
86,
11,
125,
-44,
62,
-108,
-78,
57,
-7,
-89,
-84,
120,
48,
121,
58,
64,
116,
121,
9,
12,
83,
50,
-60,
75,
26,
-70,
124,
44,
-126,
126,
-36,
-41,
9,
88,
-86,
71,
-21,
90,
127,
99,
-127,
-85,
-36,
-80,
35,
21,
111,
24,
-114,
120,
35,
96,
42,
102,
-84,
-60,
31,
-88,
-16,
-95,
37,
-53,
118,
45,
-93,
-95,
-12,
14,
122,
-12,
112,
-5,
-98,
75,
42,
65,
-31,
-102,
88,
-18,
-110,
-5,
78,
-69,
97,
-7,
126,
0,
-96,
-18,
32,
68,
-72,
23,
-15,
-38,
-73,
-27,
-25,
48,
-40,
87,
42,
-11,
34,
84,
53,
2,
109,
13,
-16,
-2,
-119,
61,
-72,
105,
-74,
-74,
-23,
-43,
-93,
9,
24,
-38,
31,
8,
-76,
-43,
108,
26,
-123,
67,
112,
47,
-71,
19,
-125,
-19,
20,
111,
122,
3,
108,
-125,
-64,
-92,
-21,
116,
-38,
-45,
72,
123,
91,
-32,
-42,
121,
104,
-119,
-50,
-44,
34,
82,
-104,
-109,
-127,
79,
37,
-125,
-68,
56,
113,
-74,
-68,
-35,
55,
122,
0,
-94,
111,
-39,
-11,
55,
-43,
79,
23,
42,
-55,
-1,
-78,
22,
82,
83,
-24,
105,
101,
-24,
56,
-118,
-22,
116,
-62,
90,
41,
124,
-73,
-31,
118,
55,
-126,
-27,
15,
117,
28,
99,
69,
-77,
-115,
-114,
-79,
-66,
-93,
-125,
17,
-117,
-20,
117,
113,
35,
127,
-36,
-105,
64,
53,
64,
60,
-20,
32,
50,
34,
33,
23,
-79,
23,
-77,
-107,
91,
100,
-95,
-24,
-107,
-33,
-118,
22,
-17,
-108,
-126,
-28,
-122,
-91,
98,
96,
-69,
34,
-107,
-6,
-34,
0,
-102,
16,
-94,
-69,
-89,
82,
-47,
88,
102,
-84,
60,
6,
-109,
-48,
-28,
-100,
101,
82,
47,
-25,
-73,
-76,
11,
-103,
-108,
69,
-69,
-88,
-64,
24,
-88,
88,
-88,
72,
-109,
77,
26,
98,
-91,
127,
13,
-32,
-122,
31,
47,
-23,
-69,
-107,
59,
-23,
122,
-15,
28,
5,
-119,
47,
73,
-61,
-42,
8,
-37,
124,
96,
-126,
69,
-14,
-49,
94,
-43,
-13,
94,
97,
83,
-29,
-127,
2,
75,
-69,
-106,
-122,
35,
-112,
-10,
-65,
-108,
126,
-19,
-35,
64,
-62,
-28,
-101,
-65,
-60,
-99,
3,
-74,
-21,
-31,
10,
93,
62,
-21,
-80,
-95,
-21,
-78,
-20,
-91,
-57,
-15,
-57,
86,
-25,
-123,
-23,
100,
-15,
-59,
36,
-77,
41,
63,
-15,
-20,
-37,
115,
33,
-59,
83,
-85,
33,
18,
-106,
81,
50,
0,
-125,
29,
-91,
72,
-113,
-21,
-98,
116,
-16,
7,
88,
-32,
75,
123,
-110,
115,
58,
2,
-32,
20,
116,
-127,
88,
72,
43,
121,
89,
64,
-54,
-117,
63,
-52,
40,
-29,
19,
54,
78,
49,
-86,
61,
55,
1,
28,
-126,
-4,
46,
117,
54,
47,
84,
-54,
36,
84,
34,
107,
126,
27,
68,
62,
100,
78,
125,
47,
117,
-32,
65,
43,
45,
113,
-44,
-22,
40,
84,
6,
-86,
80,
-76,
-97,
6,
-30,
114,
79,
-122,
-58,
112,
-16,
-59,
-117,
51,
2,
110,
-126,
-1,
-99,
118,
95,
94,
-94,
-116,
-49,
-11,
-10,
119,
73,
-5,
-95,
25,
-82,
62,
-97,
15,
48,
-19,
21,
-11,
93,
4,
57,
103,
55,
-68,
-42,
56,
-70,
-14,
-82,
24,
79,
-49,
36,
-97,
-60,
25,
21,
12,
-108,
-75,
36,
-63,
114,
-62,
79,
-94,
-82,
99,
22,
-117,
103,
79,
114,
30,
10,
-56,
85,
-61,
-71,
-125,
91,
8,
81,
126,
38,
20,
-105,
58,
31,
-86,
110,
-61,
105,
-32,
4,
-72,
-127,
49,
27,
22,
60,
-126,
100,
-82,
31,
-18,
-11,
115,
49,
45,
-11,
-116,
-75,
-58,
-118,
-38,
-39,
-96,
19,
119,
72,
-127,
-70,
-79,
-32,
-67,
103,
-32,
-18,
2,
-10,
-86,
-125,
-38,
-41,
-95,
72,
-53,
-108,
120,
-9,
9,
-124,
-84,
-50,
-115,
-123,
39,
43,
24,
-98,
114,
24,
-40,
-93,
-8,
-108,
-118,
-41,
1,
-116,
76,
-86,
-114,
-89,
127,
46,
-18,
-54,
65,
101,
-63,
73,
104,
-20,
23,
-12,
-16,
61,
30,
7,
90,
16,
-96,
49,
50,
-105,
69,
-69,
-19,
-58,
-58,
-70,
111,
83,
95,
110,
1,
76,
56,
65,
49,
120,
-117,
-103,
99,
33,
12,
82,
-34,
-86,
-38,
-72,
57,
120,
-23,
106,
-113,
-82,
-91,
-5,
114,
106,
-76,
97,
-67,
18,
80,
-67,
-34,
-120,
125,
-113,
127,
7,
-89,
98,
39,
-78,
52,
-123,
90,
13,
60,
19,
5,
-91,
124,
-109,
81,
33,
-114,
67,
11,
-63,
-91,
71,
83,
-12,
-124,
48,
-5,
0,
63,
-6,
7,
-27,
91,
-82,
23,
-113,
50,
112,
28,
109,
-124,
32,
17,
127,
51,
-30,
32,
64,
36,
-85,
0,
72,
-15,
82,
59,
115,
3,
-74,
115,
65,
-81,
-6,
37,
-118,
39,
-68,
24,
88,
44,
51,
69,
47,
-45,
-42,
46,
5,
-73,
78,
68,
-37,
-8,
68,
34,
105,
22,
-34,
-36,
24,
19,
-49,
-39,
66,
72,
126,
-53,
111,
57,
98,
71,
-27,
-107,
-115,
19,
103,
97,
-62,
-20,
-103,
-112,
48,
114,
7,
115,
20,
111,
9,
113,
-52,
33,
-123,
-102,
-7,
70,
98,
118,
16,
-47,
48,
-13,
23,
20,
-121,
35,
-88,
109,
-123,
104,
89,
-99,
-9,
9,
14,
125,
-4,
-94,
-19,
4,
19,
-72,
36,
23,
-47,
-98,
-35,
50,
-108,
108,
-125,
-61,
94,
-102,
-41,
-27,
-68,
-2,
-46,
-64,
101,
-85,
-36,
-36,
-77,
105,
88,
46,
11,
-59,
50,
-98,
-4,
-42,
52,
-51,
114,
16,
126,
-121,
123,
1,
72,
-38,
26,
-97,
62,
85,
-100,
-112,
-106,
-127,
58,
112,
-36,
108,
-38,
-75,
-101,
100,
120,
-52,
1,
116,
33,
-75,
-63,
-108,
-60,
-65,
25,
-65,
-65,
-31,
24,
88,
0,
85,
-82,
27,
101,
-61,
28,
31,
-77,
-9,
-117,
-116,
-85,
-91,
111,
-92,
-16,
-16,
23,
17,
-92,
87,
36,
-25,
21,
-67,
38,
-44,
-99,
61,
-84,
28,
19,
-39,
-72,
119,
-101,
-45,
-106,
77,
73,
-96,
88,
-12,
68,
-56,
-105,
-76,
55,
45,
-60,
-37,
-124,
103,
65,
-104,
35,
102,
-21,
64,
-92,
23,
-36,
-74,
-17,
-109,
44,
10,
100,
65,
-41,
-82,
-32,
46,
33,
-92,
117,
55,
87,
-83,
99,
-101,
7,
102,
2,
71,
-3,
-91,
-82,
104,
-28,
80,
126,
-64,
-122,
108,
81,
49,
-10,
54,
113,
-52,
99,
80,
122,
-124,
-12,
-17,
-70,
-53,
27,
-99,
100,
-94,
2,
-26,
-23,
126,
-117,
22,
-26,
109,
101,
-28,
-83,
106,
80,
126,
-101,
69,
-76,
11,
-110,
-105,
-37,
11,
25,
-50,
121,
82,
-104,
21,
110,
124,
-74,
111,
97,
-98,
109,
-21,
-77,
83,
-39,
-104,
54,
-123,
1,
6,
-125,
27,
-52,
-74,
-90,
92,
75,
-127,
-25,
-28,
-50,
95,
-74,
-26,
115,
35,
97,
41,
18,
66,
70,
127,
45,
121,
82,
-122,
16,
8,
-118,
-110,
-113,
12,
44,
89,
-63,
-46,
53,
-115,
81,
-100,
111,
30,
-6,
-90,
-124,
-18,
-56,
-28,
22,
-38,
-89,
-36,
-39,
-45,
84,
42,
-40,
-27,
49,
96,
-10,
-65,
-20,
33,
-104,
45,
-14,
76,
-71,
-61,
-25,
-88,
97,
-31,
76,
-28,
-50,
-107,
72,
99,
109,
-18,
62,
-58,
64,
19,
-17,
23,
-9,
-96,
118,
-20,
94,
-29,
12,
117,
15,
126,
-62,
71,
64,
-88,
-18,
-95,
8,
-69,
-123,
85,
78,
-52,
56,
59,
-71,
-9,
0,
-8,
9,
110,
-113,
127,
13,
-123,
106,
106,
102,
-10,
96,
-11,
115,
33,
59,
52,
72,
41,
-44,
-47,
99,
-40,
-90,
-79,
-93,
-34,
-21,
-37,
84,
106,
82,
92,
-40,
-32,
91,
-28,
-27,
69,
-49,
74,
58,
46,
63,
46,
-49,
121,
-30,
22,
34,
-75,
102,
-123,
-115,
12,
52,
-81,
-23,
-97,
10,
60,
-119,
91,
24,
95,
-68,
-13,
-60,
-96,
55,
-110,
105,
-15,
63,
40,
-97,
13,
-94,
127,
-93,
67,
-75,
9,
-56,
-63,
20,
123,
110,
124,
-101,
-8,
56,
34,
-44,
-48,
-126,
15,
-62,
68,
-82,
-8,
85,
-105,
-24,
-108,
-65,
7,
-96,
-32,
-122,
-62,
34,
57,
-54,
-23,
-7,
93,
-27,
-24,
89,
126,
-33,
17,
-96,
50,
-32,
-95,
64,
33,
-28,
109,
24,
-71,
4,
-127,
75,
66,
7,
106,
33,
-116,
44,
66,
-59,
117,
-84,
61,
83,
-112,
-91,
44,
-114,
-124,
61,
-83,
53,
28,
77,
117,
-66,
-79,
-30,
85,
105,
101,
85,
52,
-89,
91,
-97,
71,
-25,
74,
-118,
43,
63,
-75,
-24,
18,
-60,
-115,
62,
80,
-112,
122,
-4,
-60,
22,
-55,
-71,
-45,
121,
-101,
40,
98,
127,
124,
-106,
-89,
-40,
-76,
-19,
62,
125,
-10,
104,
-67,
-86,
79,
-50,
-19,
91,
11,
60,
-22,
5,
-71,
-82,
27,
1,
101,
-19,
-6,
127,
-107,
91,
127,
17,
113,
37,
104,
-91,
-110,
-90,
34,
-120,
-114,
-34,
-79,
92,
43,
-98,
-72,
-73,
89,
-95,
-69,
-110,
-50,
-43,
-109,
-76,
66,
-116,
-77,
86,
103,
49,
-25,
88,
-42,
78,
-4,
103,
115,
29,
110,
-127,
-6,
30,
-35,
-90,
59,
20,
91,
21,
52,
-106,
-90,
-125,
-21,
55,
53,
44,
67,
-25,
2,
42,
24,
-23,
-126,
-19,
-73,
124,
-44,
-85,
-102,
65,
42,
19,
-32,
-121,
-72,
-101,
-102,
-109,
-81,
-50,
40,
84,
-48,
18,
11,
4,
-66,
-50,
-22,
-65,
-9,
-126,
-89,
119,
-17,
-34,
-12,
66,
-120,
-115,
-124,
-79,
31,
-29,
55,
-41,
124,
80,
104,
-84,
-98,
-112,
127,
108,
33,
10,
111,
-34,
-40,
-38,
-99,
78,
-37,
-61,
-58,
73,
-96,
57,
-116,
-89,
-59,
-113,
87,
-29,
112,
14,
57,
108,
-34,
34,
23,
123,
-79,
-106,
103,
-46,
32,
87,
47,
-9,
-79,
-53,
68,
-117,
14,
-118,
-44,
45,
-62,
-33,
-44,
6,
108,
-85,
-23,
-36,
56,
-94,
71,
21,
-61,
-33,
-112,
-12,
-12,
119,
69,
19,
-50,
115,
-118,
125,
-65,
78,
-120,
76,
-41,
90,
120,
-103,
-71,
-52,
-98,
36,
117,
6,
127,
-83,
-88,
-57,
66,
-22,
37,
81,
-35,
24,
-56,
33,
-84,
-107,
21,
52,
17,
-45,
2,
-103,
30,
-39,
114,
22,
112,
-84,
-30,
-114,
-49,
86,
-108,
78,
-124,
-69,
-107,
-59,
-92,
-71,
21,
-127,
80,
-35,
33,
123,
-15,
53,
48,
-125,
-120,
49,
-101,
-91,
9,
-115,
-69,
-7,
55,
28,
-121,
6,
113,
-102,
-44,
116,
-44,
103,
-71,
118,
-96,
-50,
118,
111,
42,
24,
-21,
-101,
76,
26,
28,
-44,
74,
-74,
-8,
-44,
-61,
50,
-52,
-7,
77,
-46,
-2,
63,
-21,
81,
-77,
-66,
-72,
107,
-75,
86,
-71,
-85,
-58,
98,
-62,
48,
-4,
-113,
73,
-103,
-30,
19,
77,
-39,
-26,
15,
-116,
50,
-119,
-40,
3,
6,
-105,
110,
87,
-54,
43,
14,
52,
-33,
-27,
108,
-118,
42,
-50,
74,
89,
73,
88,
34,
-31,
57,
52,
-81,
-109,
-101,
61,
29,
76,
-59,
116,
-49,
-53,
11,
60,
33,
-44,
103,
-81,
-120,
-58,
-109,
115,
-49,
60,
-63,
25,
-107,
9,
-15,
54,
-22,
42,
-21,
24,
-68,
5,
84,
88,
80,
25,
-52,
30,
99,
86,
-37,
-124,
-86,
-62,
-78,
-79,
-121,
-59,
35,
85,
0,
-29,
-18,
21,
108,
-34,
74,
-42,
-120,
52,
-19,
66,
56,
64,
26,
8,
-39,
-26,
-89,
59,
-68,
-127,
62,
-26,
65,
-16,
-106,
71,
-76,
-71,
-100,
51,
27,
9,
71,
7,
103,
-110,
-36,
-18,
69,
72,
-79,
-2,
-119,
-54,
5,
-31,
47,
-85,
28,
-21,
-85,
89,
-48,
107,
-55,
-27,
-77,
123,
29,
77,
-81,
-71,
-41,
117,
-65,
61,
-121,
27,
42,
-52,
98,
-38,
73,
106,
-92,
-50,
75,
82,
-7,
102,
-67,
-93,
63,
12,
14,
8,
-15,
-64,
3,
13,
-115,
49,
-59,
98,
-89,
4,
31,
44,
30,
73,
119,
0,
-93,
-64,
106,
-58,
-114,
53,
24,
-122,
27,
-44,
-88,
89,
-32,
-75,
-31,
80,
-12,
100,
92,
1,
-107,
-94,
98,
-69,
-91,
-126,
103,
66,
74,
-34,
65,
-20,
30,
43,
50,
43,
95,
73,
48,
121,
-99,
-41,
-45,
-4,
12,
51,
75,
127,
-105,
40,
127,
-84,
73,
-30,
101,
109,
-29,
76,
-81,
-83,
-85,
111,
-104,
-56,
-101,
-55,
114,
-7,
-110,
-94,
114,
-81,
-8,
-59,
-86,
-124,
-9,
117,
3,
14,
-99,
-126,
-71,
101,
-29,
-98,
-46,
-59,
-22,
127,
-15,
-108,
-18,
-119,
-37,
-120,
-47,
-51,
1,
-29,
109,
114,
-111,
-27,
54,
-70,
104,
44,
46,
106,
-70,
74,
107,
113,
-81,
78,
-112,
0,
-109,
120,
-1,
-124,
-116,
-19,
-116,
-26,
-12,
-36,
-78,
116,
-66,
-97,
-26,
-50,
3,
27,
-120,
106,
-56,
-75,
84,
-127,
127,
-64,
114,
-82,
-114,
1,
-82,
31,
120,
-84,
-94,
-124,
24,
44,
104,
-115,
8,
-102,
0,
69,
55,
-26,
19,
-70,
-127,
26,
36,
71,
78,
-8,
72,
-51,
55,
-70,
122,
-60,
-70,
39,
-29,
-78,
-46,
4,
-75,
106,
48,
28,
-10,
-72,
53,
-11,
-4,
-20,
90,
-113,
-91,
-37,
-88,
72,
-94,
-10,
-63,
-23,
66,
-9,
-94,
60,
59,
-37,
98,
-98,
12,
-75,
-95,
-64,
-97,
80,
-37,
-108,
7,
-112,
-120,
-124,
122,
98,
-110,
-96,
60,
-70,
-25,
-35,
47,
-89,
-58,
112,
30,
-25,
-83,
88,
66,
-113,
-11,
77,
-61,
21,
13,
96,
101,
103,
-13,
-20,
-9,
-5,
-17,
-15,
92,
-127,
-112,
24,
57,
118,
-12,
103,
-99,
57,
87,
-70,
32,
-124,
17,
-30,
18,
-122,
46,
-44,
-101,
58,
-75,
127,
34,
39,
106,
-103,
-94,
-38,
-119,
-3,
89,
-103,
-107,
18,
-113,
-119,
-7,
42,
-63,
79,
100,
96,
-45,
-11,
65,
100,
122,
-16,
-72,
-107,
-86,
107,
19,
-53,
-109,
-3,
-29,
51,
-42,
107,
-79,
-81,
3,
68,
64,
-111,
76,
56,
58,
-114,
8,
-98,
-19,
90,
19,
-81,
-66,
-115,
30,
116,
-95,
-57,
96,
51,
18,
-14,
47,
-12,
-91,
-122,
-33,
-43,
-76,
97,
-102,
-12,
113,
-27,
43,
44,
113,
-77,
-55,
-33,
12,
-37,
13,
-55,
-25,
42,
-66,
7,
112,
29,
57,
2,
-113,
-23,
-10,
50,
109,
84,
-120,
-95,
54,
32,
-108,
-89,
-123,
63,
-46,
-10,
-15,
27,
-44,
125,
117,
96,
69,
-35,
-118,
2,
-29,
121,
-97,
28,
123,
44,
4,
-15,
-33,
-15,
68,
101,
-111,
121,
5,
-91,
-95,
-119,
99,
113,
125,
83,
12,
-47,
-48,
-126,
48,
-106,
93,
57,
23,
-64,
-77,
-74,
-37,
45,
-31,
94,
29,
-65,
-49,
-31,
-92,
-32,
90,
-88,
4,
122,
48,
102,
-21,
45,
-71,
-9,
126,
9,
-8,
46,
30,
84,
-24,
52,
19,
-102,
-23,
110,
70,
74,
76,
-29,
-119,
27,
-61,
-83,
122,
-99,
83,
125,
22,
3,
-29,
-126,
-79,
27,
-8,
-81,
-92,
-17,
-36,
-63,
66,
67,
-11,
-43,
-36,
93,
66,
-94,
39,
15,
4,
-80,
41,
-57,
91,
35,
-29,
46,
-96,
121,
-78,
2,
122,
-30,
28,
113,
-112,
-64,
95,
106,
127,
33,
46,
-12,
-11,
-118,
-46,
-72,
43,
-8,
-58,
46,
39,
110,
116,
2,
-111,
-40,
-79,
-80,
-47,
97,
-79,
74,
66,
-52,
-69,
81,
11,
-102,
59,
-117,
-70,
104,
-2,
46,
-14,
79,
-27,
28,
71,
42,
-54,
-18,
-104,
-65,
112,
-88,
22,
32,
86,
-26,
1,
-121,
47,
-61,
82,
105,
19,
-35,
2,
77,
-25,
-69,
-74,
-27,
-24,
-89,
51,
77,
66,
-6,
118,
-116,
104,
-113,
73,
-40,
53,
94,
119,
12,
-60,
119,
-110,
-14,
-70,
99,
-37,
-52,
-63,
-36,
-103,
-89,
22,
-50,
11,
126,
-12,
62,
75,
53,
-72,
65,
65,
31,
-49,
10,
118,
-123,
-23,
-19,
16,
-84,
-28,
33,
30,
-99,
5,
-8,
-24,
-59,
84,
-127,
106,
-22,
77,
117,
-24,
65,
51,
-77,
-10,
106,
-12,
-73,
10,
66,
-63,
127,
-58,
-87,
-19,
85,
-44,
-48,
118,
-15,
-19,
122,
105,
-44,
-65,
61,
-44,
40,
-89,
33,
29,
15,
-30,
-48,
-63,
87,
58,
-76,
14,
67,
-10,
78,
66,
59,
-10,
46,
-111,
73,
126,
-121,
-69,
106,
-127,
35,
61,
62,
-32,
17,
-26,
-122,
-78,
-124,
20,
-109,
82,
-43,
105,
12,
8,
118,
-49,
125,
-60,
17,
57,
57,
-65,
73,
-125,
60,
-49,
-67,
-90,
-49,
-33,
99,
12,
62,
115,
113,
67,
-91,
-12,
87,
-73,
-57,
-84,
31,
-46,
-77,
22,
-95,
48,
89,
49,
-23,
-109,
-17,
49,
-107,
43,
-1,
80,
80,
-51,
-81,
-77,
88,
108,
-90,
-55,
-81,
73,
61,
-122,
127,
3,
48,
-97,
-44,
99,
-76,
-12,
19,
-115,
36,
-5,
-97,
-108,
43,
50,
62,
-86,
2,
-114,
117,
48,
-63,
77,
-100,
101,
-106,
-53,
47,
-46,
-48,
-82,
-44,
0,
-52,
40,
98,
-1,
-100,
-11,
-116,
64,
-17,
41,
-45,
25,
-36,
16,
-62,
-35,
29,
-73,
-114,
-35,
-124,
-87,
-61,
24,
114,
113,
-22,
-61,
-97,
61,
-62,
106,
-27,
-92,
-23,
-127,
-104,
115,
-64,
6,
-99,
18,
30,
-8,
-94,
95,
84,
-66,
-106,
-31,
27,
24,
10,
93,
47,
-4,
-50,
24,
-66,
-20,
-42,
126,
-42,
-70,
-94,
-65,
-70,
-71,
49,
120,
-66,
77,
10,
-37,
68,
-85,
-70,
25,
-23,
78,
-7,
3,
101,
2,
-32,
-107,
-2,
-83,
44,
-69,
24,
1,
-70,
-18,
59,
-37,
-84,
-12,
-108,
92,
-19,
80,
42,
-10,
43,
-18,
33,
-28,
6,
9,
-77,
-1,
-116,
23,
-127,
106,
43,
-2,
-105,
-40,
57,
-82,
88,
114,
-101,
-109,
76,
-58,
7,
-33,
-93,
-13,
47,
-52,
104,
-38,
-71,
-119,
61,
-65,
17,
-17,
61,
-100,
-121,
61,
5,
49,
-68,
-101,
8,
-12,
-55,
-31,
-26,
-29,
114,
49,
41,
-7,
-111,
-53,
-21,
-65,
-106,
83,
-104,
-50,
91,
84,
12,
108,
67,
72,
7,
73,
6,
-115,
121,
-63,
38,
2,
52,
110,
-30,
25,
81,
-44,
-54,
121,
-51,
89,
-60,
55,
-104,
-39,
-118,
-81,
-90,
-27,
3,
-78,
80,
69,
121,
-41,
-114,
126,
98,
-121,
-65,
9,
-120,
114,
118,
-23,
-117,
71,
61,
-43,
64,
9,
-82,
3,
63,
69,
-37,
73,
-13,
1,
-82,
-11,
50,
-3,
-70,
-85,
-45,
-57,
-86,
53,
77,
-24,
-66,
84,
90,
51,
61,
100,
122,
121,
56,
-70,
2,
-26,
61,
-63,
-85,
-104,
9,
-99,
-104,
-74,
18,
-55,
50,
75,
-12,
-122,
18,
-99,
58,
94,
-124,
-9,
50,
-35,
41,
110,
-62,
35,
103,
-7,
93,
-23,
94,
26,
-86,
8,
-79,
50,
37,
72,
104,
-73,
16,
-102,
1,
3,
30,
18,
31,
-40,
-16,
35,
-50,
34,
127,
119,
16,
64,
26,
-8,
57,
118,
-32,
23,
-112,
9,
-96,
-63,
59,
68,
8,
-93,
-6,
-104,
-68,
122,
27,
90,
13,
-70,
49,
124,
-36,
127,
30,
91,
-10,
46,
-101,
15,
-90,
83,
6,
5,
106,
21,
14,
9,
-43,
-55,
-51,
92,
-21,
70,
-12,
-90,
-64,
-113,
127,
76,
71,
-79,
-55,
35,
-80,
-26,
125,
-91,
-108,
-104,
51,
56,
-21,
-71,
61,
84,
-50,
-53,
-35,
34,
-109,
-87,
126,
-3,
-18,
-14,
-94,
45,
127,
-94,
121,
70,
81,
65,
104,
-127,
-89,
101,
36,
58,
-3,
-41,
-14,
103,
-112,
-81,
-69,
-35,
120,
23,
126,
-117,
-65,
124,
-121,
44,
109,
-87,
88,
108,
73,
-47,
-77,
26,
-110,
-101,
-102,
56,
-127,
61,
113,
-3,
-108,
-29,
99,
-93,
-110,
29,
-1,
9,
-76,
125,
20,
113,
-7,
-102,
29,
-25,
65,
116,
82,
10,
-58,
-123,
35,
86,
-96,
60,
-114,
31,
120,
126,
27,
-115,
97,
125,
46,
114,
26,
45,
122,
77,
-86,
-114,
62,
34,
-88,
90,
8,
104,
-50,
-37,
114,
-109,
94,
21,
105,
-3,
81,
118,
-100,
73,
-11,
54,
-43,
-42,
51,
-124,
71,
76,
-80,
65,
-103,
-39,
79,
-42,
-6,
-10,
-80,
2,
-34,
125,
-36,
79,
-112,
-70,
-27,
-8,
55,
-74,
110,
-46,
126,
-29,
8,
-44,
56,
58,
86,
126,
7,
5,
63,
31,
-35,
-114,
117,
86,
3,
36,
87,
-31,
33,
-77,
-80,
-79,
108,
-108,
40,
-93,
-55,
22,
-12,
71,
-8,
123,
26,
-80,
54,
-16,
45,
-67,
116,
-19,
-37,
80,
-6,
-48,
-90,
-3,
116,
125,
93,
-107,
47,
-115,
-59,
-101,
32,
109,
-67,
104,
-125,
-79,
-81,
-5,
-84,
72,
-86,
-31,
55,
87,
-99,
-85,
-60,
-8,
122,
-67,
-57,
-95,
57,
-69,
29,
-106,
79,
-52,
34,
-108,
-25,
-62,
-127,
-93,
41,
3,
-45,
88,
125,
126,
-96,
-89,
94,
87,
-3,
123,
1,
-64,
114,
-4,
-3,
-71,
-100,
53,
115,
56,
-53,
66,
3,
108,
85,
-23,
-82,
-42,
12,
-42,
88,
-34,
-82,
85,
-36,
-50,
-5,
58,
36,
120,
53,
-91,
55,
-89,
-96,
51,
-33,
-69,
-23,
81,
-14,
-77,
19,
117,
-97,
104,
-34,
75,
61,
105,
-95,
21,
71,
78,
105,
34,
27,
99,
-36,
-65,
-37,
16,
98,
-109,
54,
-125,
69,
21,
60,
45,
-26,
-81,
95,
-7,
-92,
-3,
96,
1,
-56,
29,
106,
104,
49,
-79,
54,
26,
82,
-47,
124,
-81,
-113,
-40,
62,
112,
105,
-11,
114,
-82,
9,
-81,
91,
110,
-35,
-70,
102,
0,
55,
70,
0,
126,
-29,
105,
102,
-108,
-102,
-100,
-83,
108,
-20,
-86,
26,
-6,
-127,
-40,
106,
105,
-52,
-36,
-105,
84,
10,
-15,
-61,
102,
43,
-87,
101,
-30,
111,
-26,
95,
-46,
78,
-58,
101,
104,
96,
-110,
-44,
-51,
58,
-19,
-58,
58,
68,
-80,
-93,
16,
12,
57,
99,
21,
-86,
-90,
-4,
-44,
78,
-31,
-75,
61,
-58,
20,
14,
-107,
-39,
114,
-4,
-71,
-123,
-49,
-123,
-66,
59,
-53,
120,
126,
121,
26,
-114,
-123,
-45,
113,
26,
124,
22,
21,
79,
-28,
-11,
-123,
-95,
59,
24,
-81,
-49,
112,
-95,
-54,
40,
36,
24,
45,
98,
82,
-9,
-38,
80,
-16,
115,
94,
116,
70,
-49,
-114,
-62,
100,
34,
-111,
72,
-105,
20,
-24,
-47,
43,
22,
31,
27,
-73,
104,
67,
90,
127,
-16,
60,
81,
102,
21,
-94,
85,
-119,
-1,
73,
-50,
-51,
86,
15,
-79,
119,
-97,
120,
-113,
51,
-31,
-33,
-34,
-10,
-2,
-7,
44,
101,
-68,
-121,
-27,
-85,
-62,
-74,
16,
87,
86,
-27,
-33,
84,
46,
44,
-95,
-124,
58,
81,
123,
88,
-55,
9,
-117,
-87,
103,
-23,
-97,
100,
-31,
74,
74,
28,
80,
-81,
-58,
-109,
99,
85,
-23,
-70,
-70,
71,
-114,
-25,
-13,
46,
-21,
-83,
126,
-26,
4,
-57,
110,
15,
111,
-43,
-9,
-114,
57,
87,
-41,
3,
114,
39,
-79,
-72,
57,
19,
12,
33,
76,
69,
-24,
-38,
-83,
-38,
7,
-105,
-122,
5,
-4,
-119,
-53,
105,
23,
-70,
61,
-114,
70,
-10,
-28,
-98,
-8,
-42,
68,
-88,
-115,
124,
59,
24,
-99,
-121,
93,
-124,
95,
9,
-35,
101,
31,
97,
-22,
26,
105,
-75,
3,
-127,
109,
63,
13,
52,
53,
113,
-47,
-83,
70,
20,
84,
83,
-112,
15,
106,
-84,
-107,
71,
-81,
-12,
-48,
-117,
-39,
110,
-21,
67,
-120,
83,
-9,
-118,
83,
-28,
73,
96,
23,
-2,
-47,
-25,
-86,
22,
122,
125,
104,
-118,
-116,
83,
52,
32,
26,
98,
-108,
106,
-20,
-20,
-40,
86,
46,
-32,
42,
-91,
-23,
124,
-119,
49,
92,
-97,
46,
44,
-122,
88,
-61,
-1,
-43,
-85,
-119,
96,
125,
60,
0,
-104,
-97,
19,
1,
10,
-2,
-40,
-31,
-83,
55,
-117,
80,
32,
6,
-40,
80,
98,
-9,
-1,
14,
123,
-41,
-48,
-6,
-85,
-5,
2,
-117,
119,
-65,
-118,
-113,
-35,
28,
-113,
-26,
-101,
-25,
70,
70,
29,
-48,
22,
-67,
86,
110,
-114,
56,
100,
-116,
-58,
95,
-30,
-106,
88,
-116,
16,
-37,
-105,
-121,
-103,
31,
21,
116,
-68,
35,
-38,
85,
-118,
32,
-101,
-89,
111,
48,
-29,
69,
-98,
111,
124,
1,
122,
66,
95,
91,
87,
56,
-25,
102,
18,
-3,
108,
42,
27,
1,
-98,
86,
-91,
118,
-85,
45,
22,
-59,
83,
6,
-11,
54,
74,
-110,
-91,
71,
19,
31,
-119,
113,
121,
95,
41,
-32,
69,
-69,
-36,
49,
-28,
119,
50,
1,
-51,
-42,
119,
119,
2,
13,
-68,
-42,
-109,
-80,
11,
-35,
65,
-81,
35,
83,
-51,
43,
68,
-57,
10,
-18,
-90,
78,
-88,
2,
-1,
-116,
120,
48,
-116,
-59,
-122,
-125,
-68,
8,
16,
119,
-35,
-94,
38,
103,
-2,
-25,
21,
32,
-70,
98,
-53,
126,
40,
-44,
107,
77,
-94,
18,
78,
-95,
29,
70,
80,
41,
11,
86,
43,
-58,
93,
-69,
60,
-70,
92,
98,
32,
89,
-55,
-75,
-6,
-125,
22,
68,
0,
-66,
24,
-21,
11,
57,
124,
-39,
89,
-102,
31,
42,
66,
41,
127,
-19,
110,
92,
-88,
-85,
21,
-124,
-115,
-75,
92,
-43,
104,
85,
86,
-1,
-102,
-42,
-68,
49,
-64,
70,
-22,
60,
31,
67,
85,
-66,
108,
23,
102,
-21,
3,
-44,
-57,
42,
-2,
-37,
-83,
10,
15,
9,
-33,
-9,
-34,
52,
-11,
118,
-117,
49,
39,
73,
118,
17,
5,
21,
83,
89,
82,
63,
-16,
-72,
-86,
115,
12,
111,
-99,
9,
-54,
73,
19,
-40,
-46,
113,
78,
-81,
37,
67,
-90,
-81,
-12,
-52,
120,
-22,
92,
124,
-1,
47,
86,
80,
109,
69,
-119,
-105,
-72,
-108,
5,
-43,
28,
-50,
29,
46,
37,
110,
-97,
115,
28,
-60,
54,
65,
-14,
41,
-114,
105,
18,
-23,
-26,
-111,
24,
-68,
97,
5,
-127,
105,
28,
56,
-4,
32,
12,
23,
110,
-87,
-58,
-109,
22,
-28,
-122,
-78,
39,
-69,
-13,
25,
99,
127,
2,
-10,
-24,
103,
6,
127,
34,
-25,
5,
-93,
79,
32,
90,
-53,
63,
-26,
-30,
-83,
14,
39,
-64,
35,
10,
68,
84,
-78,
127,
-57,
74,
98,
-58,
75,
87,
-82,
-77,
93,
44,
84,
67,
-79,
-10,
19,
-48,
-48,
-35,
-112,
-75,
62,
-68,
-62,
100,
122,
100,
-17,
63,
-71,
-96,
62,
-1,
105,
-96,
-59,
-76,
-9,
113,
-26,
-44,
29,
58,
-105,
-50,
47,
41,
29,
-1,
6,
-84,
51,
67,
103,
-11,
40,
97,
88,
-105,
32,
-111,
53,
93,
-112,
30,
125,
-44,
-47,
115,
68,
-73,
-57,
-31,
-16,
-35,
46,
-97,
6,
-52,
29,
11,
118,
80,
-50,
93,
68,
117,
63,
28,
11,
94,
-83,
-64,
60,
-68,
-35,
-71,
-113,
-82,
-84,
82,
-28,
-14,
-77,
83,
-50,
97,
-15,
-45,
44,
-113,
93,
34,
-34,
-84,
127,
-94,
32,
62,
-67,
43,
28,
-23,
106,
87,
-92,
71,
-112,
49,
116,
-69,
3,
87,
-84,
-74,
42,
121,
22,
-101,
-52,
-62,
40,
-86,
-29,
5,
84,
-30,
-90,
-12,
31,
-29,
-97,
59,
-53,
9,
18,
110,
79,
-94,
31,
67,
91,
-93,
-102,
-120,
87,
-61,
0,
-19,
-35,
75,
-82,
5,
-12,
16,
-118,
-56,
-14,
-80,
60,
16,
-110,
90,
-53,
91,
98,
93,
73,
49,
126,
104,
115,
89,
-117,
-115,
-32,
97,
-49,
95,
77,
-84,
-85,
122,
48,
30,
10,
-71,
102,
-5,
103,
34,
-116,
-8,
123,
85,
-44,
94,
-78,
28,
15,
47,
4,
3,
-119,
-114,
-113,
-24,
-18,
-34,
71,
-69,
9,
-15,
-75,
56,
-113,
-65,
-16,
-12,
57,
87,
-106,
-60,
-49,
17,
-102,
-94,
110,
-53,
-66,
-3,
122,
65,
-1,
2,
-49,
14,
105,
60,
-21,
-80,
119,
-13,
32,
-84,
-85,
-81,
105,
-102,
34,
35,
112,
-72,
-26,
63,
72,
126,
-32,
54,
73,
29,
50,
-61,
-33,
49,
68,
45,
-65,
45,
104,
41,
-35,
95,
27,
-4,
11,
69,
42,
-12,
-34,
-51,
22,
78,
4,
124,
-115,
-52,
-6,
-20,
1,
-61,
-118,
50,
5,
103,
-29,
-55,
-108,
-95,
-10,
123,
-55,
82,
-37,
99,
-50,
101,
-88,
120,
88,
6,
68,
-17,
83,
-56,
106,
95,
-109,
-28,
-53,
-109,
-89,
83,
68,
43,
58,
-88,
116,
77,
-56,
-22,
-55,
17,
59,
35,
115,
-119,
8,
-100,
0,
-32,
33,
-60,
-50,
115,
-117,
55,
82,
-99,
27,
-99,
-81,
65,
112,
-13,
-20,
-86,
26,
-32,
119,
-31,
-55,
63,
-15,
-124,
-30,
-27,
12,
105,
0,
11,
72,
32,
79,
22,
19,
89,
-51,
100,
-10,
103,
-127,
-92,
40,
-16,
22,
20,
-102,
47,
-13,
16,
